{"learner":{"attributes":{"best_iteration":"140","best_score":"0.37104970000776977"},"feature_names":[],"feature_types":[],"gradient_booster":{"model":{"cats":{"enc":[],"feature_segments":[],"sorted_idx":[]},"gbtree_model_param":{"num_parallel_tree":"1","num_trees":"161"},"iteration_indptr":[0,1,2,3,4,5,6,7,8,9,10,11,12,13,14,15,16,17,18,19,20,21,22,23,24,25,26,27,28,29,30,31,32,33,34,35,36,37,38,39,40,41,42,43,44,45,46,47,48,49,50,51,52,53,54,55,56,57,58,59,60,61,62,63,64,65,66,67,68,69,70,71,72,73,74,75,76,77,78,79,80,81,82,83,84,85,86,87,88,89,90,91,92,93,94,95,96,97,98,99,100,101,102,103,104,105,106,107,108,109,110,111,112,113,114,115,116,117,118,119,120,121,122,123,124,125,126,127,128,129,130,131,132,133,134,135,136,137,138,139,140,141,142,143,144,145,146,147,148,149,150,151,152,153,154,155,156,157,158,159,160,161],"tree_info":[0,0,0,0,0,0,0,0,0,0,0,0,0,0,0,0,0,0,0,0,0,0,0,0,0,0,0,0,0,0,0,0,0,0,0,0,0,0,0,0,0,0,0,0,0,0,0,0,0,0,0,0,0,0,0,0,0,0,0,0,0,0,0,0,0,0,0,0,0,0,0,0,0,0,0,0,0,0,0,0,0,0,0,0,0,0,0,0,0,0,0,0,0,0,0,0,0,0,0,0,0,0,0,0,0,0,0,0,0,0,0,0,0,0,0,0,0,0,0,0,0,0,0,0,0,0,0,0,0,0,0,0,0,0,0,0,0,0,0,0,0,0,0,0,0,0,0,0,0,0,0,0,0,0,0,0,0,0,0,0,0],"trees":[{"base_weights":[2.0261619E-3,-3.48529E-1,4.724966E0,-4.599686E-1,8.682056E-1,1.0221464E-1,4.8980556E0,2.2492154E-1,-5.465145E-1,1.69278E0,-5.0907392E-2,-3.164557E-1,9.2346084E-1,1.5503876E-1,4.9086385E0,7.3184353E-1,-2.2506443E-1,-2.846929E-1,-7.549401E-1,4.7670636E-1,2.3568459E0,-4.851417E-1,3.09282E-1,-4.4444442E-1,1.4705882E0,-4.8327136E-1,1.9187675E0,7.7922076E-2,-5.1948052E-2,3.2716048E0,4.9204183E0,4.0831187E-1,1.3498558E0,-3.0612862E-1,9.322399E-1,-3.967939E-1,4.950124E-1,-5.551923E-1,-9.1377604E-1,2.2241049E-2,8.676928E-1,1.5282413E0,2.912336E0,-8.411882E-1,-3.3166686E-1,1.0862261E0,-5.1343217E-2,-5.325987E-1,1.3114755E-1,2.1698113E-1,1.754386E-2,-8.016877E-1,1.0526315E-1,2.425249E0,-5.5555552E-2,7.8651685E-1,3.6803517E0,9.016394E-2,4.9230833E0,5.5563086E-1,3.6608204E-2,2.928795E0,9.332943E-1,1.8545672E-2,-4.813208E-1,-1.3270882E-1,2.1960413E0,-3.250004E-1,-8.119828E-1,-9.372453E-2,7.374213E-1,-5.817342E-1,3.386454E-1,-1.010882E0,-6.9134706E-1,6.985547E-1,-2.7634373E-1,1.8923076E0,4.3038628E-1,1.1608855E0,2.6927404E0,3.3920739E0,2.2988038E0,8.823529E-1,-8.776518E-1,-2.0294808E-2,-7.404795E-1,1.2533398E0,-8.3109915E-1,-1.1260539E-1,1.8855218E0,-7.586206E-1,-7.712082E-2,-9.808612E-1,2.8301885E-2,3.8461536E-2,2.7011492E0,1.491228E-1,-2.6315788E-2,1.0526315E-1,3.8673136E-1,1.7391305E-1,4.9251938E-1,4.284253E0,4.2702132E-1,6.3369393E-1,-2.5650743E-1,4.3490834E0,1.6625715E0,1.437461E0,2.7874097E-1,1.0143141E-1,-7.9981285E-1,-1.87244E-1,-6.748703E-1,-3.333333E-1,1.1325966E0,2.5722542E0,4.751131E-1,-5.4553616E-1,-1.9494146E-1,9.692898E-1,-8.426529E-1,1.5189873E0,-1.3907126E-1,1.1919491E0,1.5499069E-2,-5.17791E-1,-8.3271474E-1,5.707598E-1,-3.060217E-1,-1.0139691E0,6.0085833E-1,-7.195134E-1,4.1633305E-1,-6.675567E-3,1.3991768E0,7.729861E-2,-4.810914E-1,5.1122195E-1,2.2978382E0,7.02962E-1,-1.6835015E-2,1.7250226E0,3.8587177E-1,3.2157338E0,1.4411247E0,1.4754097E0,3.477114E0,2.4618196E0,-3.398058E-1,-7.017544E-2,2.1698113E-1,-9.030836E-1,9.016394E-2,2.9180092E-1,-4.756926E-1,1.7391305E-1,-7.840617E-1,1.460819E0,6.051873E-1,-1.076923E0,5.479452E-2,1.7383347E-1,-5.1030797E-1,2.3320158E0,-4.347826E-2,-9.381237E-1,-3.2128513E-1,3.5573122E-1,-7.453416E-1,-1.0734463E-1,-2.6315788E-2,3.3050847E-1,1.1009173E0,4.572127E-1,2.1428572E-1,3.1881988E-2,1.2228101E-1,3.7951806E-1,1.6598718E-2,6.762132E-3,-4.0366974E-2,-1.8867925E-2,4.4796824E-1,1.8777876E-1,-6E-2,4.1626793E-1,6.787687E-2,1.0161146E-1,-3.3872786E-3,9.311128E-2,-1.7291688E-3,1.2448132E-2,-1.0375146E-1,7.3329E-2,-3.8839094E-2,-6.9099315E-2,5.026455E-2,4.2483658E-2,-4.4132393E-2,-3.3707865E-2,2.0085469E-1,7.142857E-2,3.1782946E-1,1.4876032E-1,-6E-2,-3.933991E-2,-7.0927575E-2,-8.388014E-3,-7.0628546E-2,2.926267E-1,-3.9513674E-2,-9.099283E-2,-5.224168E-2,3.3333334E-1,6.3694264E-3,-4.6899587E-2,6.2200953E-3,5.955221E-2,1.6303608E-1,1.4491363E-1,-8.3234245E-3,-7.388269E-2,-4.409739E-2,-7.056691E-2,-9.923765E-2,1.735905E-1,4.056795E-2,-4.7645126E-2,9.9999994E-2,-9.8640986E-2,-1.21146165E-1,-3.468208E-2,2.352941E-1,-5.5637635E-2,-8.743609E-2,-5.178268E-2,1.2043794E-1,-4.4794187E-2,4.9861494E-2,1.0995542E-1,3.4567901E-1,-4.5248866E-3,9.731543E-2,-1.3793103E-2,-6.515478E-2,-9.1397844E-2,8.708709E-2,2.4031328E-1,-7.3770486E-2,1.0703363E-2,1.09646074E-1,-9.2369474E-2,1.6256938E-2,7.11297E-2,1.9858831E-1,6.309464E-2,-6.603774E-2,1.8051118E-1,3.5978836E-1,1.6634429E-1,-5.1948052E-2,2.1198156E-1,-8.8495575E-3,3.528131E-1,1.11801244E-1,2.7463475E-1,1.791352E-1,-6.049822E-2,1.22641504E-1,-9.400324E-2,-5.0724637E-2,5.080545E-2,-1.0453399E-1,7.865169E-2,-5.300162E-2,-9.554139E-3,-8.103295E-2,1.17736995E-1,2.1923535E-1,2.1630615E-2,1.07526876E-1,-1.8867925E-2,-1.1447811E-1,2.6295055E-2,-9.322034E-2,-3.6188178E-3,-6.32E-2,2.652582E-1,3.8461536E-2,6.172839E-3,-1.0674157E-1,1.15384616E-1,-7.416268E-2,4.608295E-3,1.3114755E-1,2.8301885E-2,-1.0150375E-1,1.7532466E-1,-2.6315788E-2],"categories":[],"categories_nodes":[],"categories_segments":[],"categories_sizes":[],"default_left":[1,1,0,0,0,0,0,0,0,0,0,1,0,0,0,0,1,0,0,0,0,0,0,1,0,0,0,0,0,0,0,0,0,0,0,0,1,0,0,0,0,0,0,0,0,0,0,0,0,0,0,0,0,0,0,0,0,0,0,0,0,0,0,0,0,1,0,0,0,0,0,0,0,1,1,0,0,0,0,0,0,0,0,0,0,0,0,0,0,0,0,0,0,0,0,0,0,0,0,0,0,0,0,0,0,0,0,0,0,0,0,0,0,0,0,0,0,0,0,0,0,0,1,0,1,0,0,1,0,0,1,0,0,0,0,0,0,0,0,0,0,0,0,0,0,0,0,0,0,0,0,0,0,0,0,0,0,0,0,0,0,0,0,0,0,0,0,0,0,0,0,0,0,0,0,0,0,0,0,0,0,0,0,0,0,0,0,0,0,0,0,0,0,0,0,0,0,0,0,0,0,0,0,0,0,0,0,0,0,0,0,0,0,0,0,0,0,0,0,0,0,0,0,0,0,0,0,0,0,0,0,0,0,0,0,0,0,0,0,0,0,0,0,0,0,0,0,0,0,0,0,0,0,0,0,0,0,0,0,0,0,0,0,0,0,0,0,0,0,0,0,0,0,0,0,0,0,0,0,0,0,0,0,0,0,0,0,0,0,0,0,0,0,0,0,0,0,0,0,0,0],"id":0,"left_children":[1,3,5,7,9,11,13,15,17,19,21,23,25,27,29,31,33,35,37,39,41,43,45,47,49,51,53,-1,-1,55,57,59,61,63,65,67,69,71,73,75,77,79,81,83,85,87,89,91,-1,-1,-1,93,-1,95,-1,97,99,-1,101,103,105,107,109,111,113,115,117,119,121,123,125,127,129,131,133,135,137,139,141,143,145,147,149,151,153,155,157,159,161,163,165,167,169,171,-1,-1,173,-1,-1,-1,-1,-1,-1,175,177,179,181,183,185,187,189,191,193,195,197,199,201,203,205,207,209,211,213,215,217,219,221,223,225,227,229,231,233,235,237,239,241,243,245,247,249,251,253,255,257,259,261,263,265,267,269,-1,-1,271,-1,273,275,-1,277,279,281,283,-1,285,287,289,-1,291,293,295,297,-1,-1,-1,299,-1,-1,-1,-1,-1,-1,-1,-1,-1,-1,-1,-1,-1,-1,-1,-1,-1,-1,-1,-1,-1,-1,-1,-1,-1,-1,-1,-1,-1,-1,-1,-1,-1,-1,-1,-1,-1,-1,-1,-1,-1,-1,-1,-1,-1,-1,-1,-1,-1,-1,-1,-1,-1,-1,-1,-1,-1,-1,-1,-1,-1,-1,-1,-1,-1,-1,-1,-1,-1,-1,-1,-1,-1,-1,-1,-1,-1,-1,-1,-1,-1,-1,-1,-1,-1,-1,-1,-1,-1,-1,-1,-1,-1,-1,-1,-1,-1,-1,-1,-1,-1,-1,-1,-1,-1,-1,-1,-1,-1,-1,-1,-1,-1,-1,-1,-1,-1,-1,-1,-1,-1,-1,-1,-1,-1,-1],"loss_changes":[4.608815E4,3.5140713E3,1.5385117E3,1.4072915E3,1.6481659E3,2.4511723E1,9.2296875E1,6.07853E2,1.1499546E3,9.2455835E2,1.6114249E2,1.1494993E1,3.4586407E1,2.5772676E0,1.9574219E1,2.4998193E2,1.3275723E2,8.168633E2,3.7179297E2,7.214408E1,3.366914E2,2.5244225E1,1.5786755E2,7.6641226E0,2.6983657E0,6.1061316E0,1.9243042E1,0E0,0E0,1.3560837E1,1.52109375E1,4.509453E1,2.8016748E2,7.511154E1,1.25027954E2,2.4325085E2,1.677479E2,1.23571045E2,1.404541E2,3.832682E1,9.699043E1,1.2502161E2,1.224751E2,9.575424E0,4.174211E1,5.826709E1,4.597104E1,4.425908E0,0E0,0E0,0E0,2.1200466E0,0E0,5.7397614E0,0E0,3.0258226E0,2.6302795E0,0E0,3.75E0,2.8107785E2,4.1277115E1,1.5340259E2,1.12394684E2,3.1535372E1,4.8689163E1,1.3384872E1,2.625502E1,1.9971875E2,6.6578186E1,2.5336208E1,2.7310696E2,8.06261E1,2.2709923E1,2.3231934E1,6.2359924E1,2.872643E1,9.5746975E0,3.523001E1,1.8818829E1,9.966626E1,4.1893738E1,3.501172E1,8.571069E1,8.456881E0,7.042549E0,2.6750803E1,1.6687439E1,2.126181E1,5.6480055E0,4.278042E1,1.3321625E1,1.9751854E0,4.7657266E0,2.7302456E-1,0E0,0E0,6.450966E0,0E0,0E0,0E0,0E0,0E0,0E0,2.2603455E0,4.881082E1,1.1417234E2,7.577176E0,2.542743E1,2.490889E1,3.958909E2,3.460217E1,4.1580154E1,9.523792E0,6.3573383E1,1.015947E1,3.8718781E0,9.997542E0,3.668953E1,1.0515269E1,6.4087585E1,2.489037E2,5.6802246E1,2.5030151E1,2.4818726E1,2.2280048E1,1.3258289E2,4.578392E1,6.806494E1,2.006842E1,2.066119E1,9.495582E0,2.3507324E1,1.6291092E1,4.8525635E1,3.7402283E1,6.9034624E0,1.417643E1,5.4410577E0,4.797882E0,9.017609E0,1.7741333E1,2.2366222E1,9.814224E0,3.3631195E1,2.55345E1,2.0092285E1,1.078471E1,1.248263E1,2.4348633E1,3.0555298E1,5.8753734E0,0E0,0E0,1.5151978E0,0E0,3.2836216E1,5.6636696E0,0E0,2.4553375E0,2.3138824E1,7.379449E0,5.675726E-1,0E0,2.179182E1,9.044727E0,5.2974014E0,0E0,2.656517E0,7.0315113E0,2.9345224E0,2.0733747E0,0E0,0E0,0E0,4.3410234E0,0E0,0E0,0E0,0E0,0E0,0E0,0E0,0E0,0E0,0E0,0E0,0E0,0E0,0E0,0E0,0E0,0E0,0E0,0E0,0E0,0E0,0E0,0E0,0E0,0E0,0E0,0E0,0E0,0E0,0E0,0E0,0E0,0E0,0E0,0E0,0E0,0E0,0E0,0E0,0E0,0E0,0E0,0E0,0E0,0E0,0E0,0E0,0E0,0E0,0E0,0E0,0E0,0E0,0E0,0E0,0E0,0E0,0E0,0E0,0E0,0E0,0E0,0E0,0E0,0E0,0E0,0E0,0E0,0E0,0E0,0E0,0E0,0E0,0E0,0E0,0E0,0E0,0E0,0E0,0E0,0E0,0E0,0E0,0E0,0E0,0E0,0E0,0E0,0E0,0E0,0E0,0E0,0E0,0E0,0E0,0E0,0E0,0E0,0E0,0E0,0E0,0E0,0E0,0E0,0E0,0E0,0E0,0E0,0E0,0E0,0E0,0E0,0E0,0E0,0E0,0E0,0E0,0E0,0E0,0E0,0E0,0E0,0E0,0E0,0E0,0E0],"parents":[2147483647,0,0,1,1,2,2,3,3,4,4,5,5,6,6,7,7,8,8,9,9,10,10,11,11,12,12,13,13,14,14,15,15,16,16,17,17,18,18,19,19,20,20,21,21,22,22,23,23,24,24,25,25,26,26,29,29,30,30,31,31,32,32,33,33,34,34,35,35,36,36,37,37,38,38,39,39,40,40,41,41,42,42,43,43,44,44,45,45,46,46,47,47,51,51,53,53,55,55,56,56,58,58,59,59,60,60,61,61,62,62,63,63,64,64,65,65,66,66,67,67,68,68,69,69,70,70,71,71,72,72,73,73,74,74,75,75,76,76,77,77,78,78,79,79,80,80,81,81,82,82,83,83,84,84,85,85,86,86,87,87,88,88,89,89,90,90,91,91,92,92,93,93,96,96,103,103,104,104,105,105,106,106,107,107,108,108,109,109,110,110,111,111,112,112,113,113,114,114,115,115,116,116,117,117,118,118,119,119,120,120,121,121,122,122,123,123,124,124,125,125,126,126,127,127,128,128,129,129,130,130,131,131,132,132,133,133,134,134,135,135,136,136,137,137,138,138,139,139,140,140,141,141,142,142,143,143,144,144,145,145,146,146,147,147,148,148,149,149,150,150,153,153,155,155,156,156,158,158,159,159,160,160,161,161,163,163,164,164,165,165,167,167,168,168,169,169,170,170,174,174],"right_children":[2,4,6,8,10,12,14,16,18,20,22,24,26,28,30,32,34,36,38,40,42,44,46,48,50,52,54,-1,-1,56,58,60,62,64,66,68,70,72,74,76,78,80,82,84,86,88,90,92,-1,-1,-1,94,-1,96,-1,98,100,-1,102,104,106,108,110,112,114,116,118,120,122,124,126,128,130,132,134,136,138,140,142,144,146,148,150,152,154,156,158,160,162,164,166,168,170,172,-1,-1,174,-1,-1,-1,-1,-1,-1,176,178,180,182,184,186,188,190,192,194,196,198,200,202,204,206,208,210,212,214,216,218,220,222,224,226,228,230,232,234,236,238,240,242,244,246,248,250,252,254,256,258,260,262,264,266,268,270,-1,-1,272,-1,274,276,-1,278,280,282,284,-1,286,288,290,-1,292,294,296,298,-1,-1,-1,300,-1,-1,-1,-1,-1,-1,-1,-1,-1,-1,-1,-1,-1,-1,-1,-1,-1,-1,-1,-1,-1,-1,-1,-1,-1,-1,-1,-1,-1,-1,-1,-1,-1,-1,-1,-1,-1,-1,-1,-1,-1,-1,-1,-1,-1,-1,-1,-1,-1,-1,-1,-1,-1,-1,-1,-1,-1,-1,-1,-1,-1,-1,-1,-1,-1,-1,-1,-1,-1,-1,-1,-1,-1,-1,-1,-1,-1,-1,-1,-1,-1,-1,-1,-1,-1,-1,-1,-1,-1,-1,-1,-1,-1,-1,-1,-1,-1,-1,-1,-1,-1,-1,-1,-1,-1,-1,-1,-1,-1,-1,-1,-1,-1,-1,-1,-1,-1,-1,-1,-1,-1,-1,-1,-1,-1,-1],"split_conditions":[1.7205435E0,8.629587E0,3.444041E0,2.3145294E-1,8.2027E-3,1.3934892E0,1.3828564E0,7.240429E-1,6.714524E-2,3.4386755E2,3.5974115E2,2.2823923E0,1.5811863E0,2.4057467E0,1.7025585E0,2.9927856E2,1.3257465E0,6.177833E2,9.6352386E-1,3.0792188E2,1.281395E1,2.982058E2,1.3121021E-2,1.0839772E0,1.0299582E0,1.5508774E2,-2.0672417E-1,7.7922076E-2,-5.1948052E-2,9.606127E-1,1.1696119E0,1.2606662E2,1.5462045E2,9.521351E-1,3.0708418E0,3.331445E-2,4.794693E-1,5.9035114E2,3.5112256E2,3.6941136E-3,9.751102E-1,6.614273E2,4.238343E-3,3.8737106E-1,1.2106354E-1,8.8381726E2,2.5316137E1,1.0115328E-1,1.3114755E-1,2.1698113E-1,1.754386E-2,2.1108639E-1,1.0526315E-1,3.7864935E0,-5.5555552E-2,2.672531E-1,1.2049333E2,9.016394E-2,7.770288E1,3.4647006E-1,1.8791397E-1,2.5026563E-1,9.896751E-2,2.686388E2,-1.6468048E-2,1.0380733E0,6.03016E1,3.3194186E2,2.6283255E2,2.8648227E2,1.0400906E0,2.4896458E1,1.1056554E0,1.3257465E0,1.1441646E2,1.281395E1,9.641923E-1,6.333523E-1,1.0197812E0,1.2291553E3,1.0418777E0,7.072525E-1,1.2034022E3,5.5027682E-2,1.8989418E0,1.7268449E-2,6.0206604E-1,5.095269E2,6.041222E2,2.622549E-2,1.4522057E0,8.992593E0,7.4647098E0,5.7086797E0,2.8301885E-2,3.8461536E-2,9.705054E1,1.491228E-1,-2.6315788E-2,1.0526315E-1,3.8673136E-1,1.7391305E-1,4.9251938E-1,3.180965E-1,2.1364082E2,1.785711E2,8.9328766E-2,7.371509E-3,1.3201301E1,2.4656998E2,1.7452298E2,3.9253852E-1,7.31163E-2,6.472047E-1,4.2382074E2,3.381984E1,1.0809125E1,1.6731827E2,1.28395815E1,2.1776093E-2,4.5543738E2,6.566849E-1,4.2766857E0,1.8039823E0,-1.2940639E-2,7.411235E2,1.1183334E-2,-6.346738E-2,1.0118004E-1,2.18624E2,2.6395137E0,4.665301E1,6.6523967E0,1.4500378E-1,8.834266E3,1.3859888E3,3.132999E1,9.602332E-1,8.3039284E-1,9.384206E0,3.268144E-2,3.2297635E2,6.7041973E-3,6.0689354E-1,8.048401E-1,7.155342E-1,1.153219E3,2.6563604E-3,1.4806919E0,6.6176206E-3,7.06967E2,-7.017544E-2,2.1698113E-1,2.064112E1,9.016394E-2,8.680872E2,8.174553E-1,1.7391305E-1,-4.4879355E-2,4.2501617E2,1.035823E0,1.3284793E2,5.479452E-2,7.1474884E2,5.1038015E-1,5.542469E2,-4.347826E-2,8.005543E-1,9.978236E0,3.1876768E1,1.3226044E0,-1.0734463E-1,-2.6315788E-2,3.3050847E-1,1.1249468E0,4.572127E-1,2.1428572E-1,3.1881988E-2,1.2228101E-1,3.7951806E-1,1.6598718E-2,6.762132E-3,-4.0366974E-2,-1.8867925E-2,4.4796824E-1,1.8777876E-1,-6E-2,4.1626793E-1,6.787687E-2,1.0161146E-1,-3.3872786E-3,9.311128E-2,-1.7291688E-3,1.2448132E-2,-1.0375146E-1,7.3329E-2,-3.8839094E-2,-6.9099315E-2,5.026455E-2,4.2483658E-2,-4.4132393E-2,-3.3707865E-2,2.0085469E-1,7.142857E-2,3.1782946E-1,1.4876032E-1,-6E-2,-3.933991E-2,-7.0927575E-2,-8.388014E-3,-7.0628546E-2,2.926267E-1,-3.9513674E-2,-9.099283E-2,-5.224168E-2,3.3333334E-1,6.3694264E-3,-4.6899587E-2,6.2200953E-3,5.955221E-2,1.6303608E-1,1.4491363E-1,-8.3234245E-3,-7.388269E-2,-4.409739E-2,-7.056691E-2,-9.923765E-2,1.735905E-1,4.056795E-2,-4.7645126E-2,9.9999994E-2,-9.8640986E-2,-1.21146165E-1,-3.468208E-2,2.352941E-1,-5.5637635E-2,-8.743609E-2,-5.178268E-2,1.2043794E-1,-4.4794187E-2,4.9861494E-2,1.0995542E-1,3.4567901E-1,-4.5248866E-3,9.731543E-2,-1.3793103E-2,-6.515478E-2,-9.1397844E-2,8.708709E-2,2.4031328E-1,-7.3770486E-2,1.0703363E-2,1.09646074E-1,-9.2369474E-2,1.6256938E-2,7.11297E-2,1.9858831E-1,6.309464E-2,-6.603774E-2,1.8051118E-1,3.5978836E-1,1.6634429E-1,-5.1948052E-2,2.1198156E-1,-8.8495575E-3,3.528131E-1,1.11801244E-1,2.7463475E-1,1.791352E-1,-6.049822E-2,1.22641504E-1,-9.400324E-2,-5.0724637E-2,5.080545E-2,-1.0453399E-1,7.865169E-2,-5.300162E-2,-9.554139E-3,-8.103295E-2,1.17736995E-1,2.1923535E-1,2.1630615E-2,1.07526876E-1,-1.8867925E-2,-1.1447811E-1,2.6295055E-2,-9.322034E-2,-3.6188178E-3,-6.32E-2,2.652582E-1,3.8461536E-2,6.172839E-3,-1.0674157E-1,1.15384616E-1,-7.416268E-2,4.608295E-3,1.3114755E-1,2.8301885E-2,-1.0150375E-1,1.7532466E-1,-2.6315788E-2],"split_indices":[11,0,3,9,13,3,10,10,13,2,2,0,10,11,10,2,11,2,10,2,0,2,13,5,5,2,9,0,0,13,5,6,6,10,3,4,9,2,2,13,5,2,13,10,3,6,3,4,0,0,0,4,0,8,0,0,2,0,2,13,13,13,13,6,9,5,3,2,6,6,10,8,5,11,8,0,5,9,5,6,9,10,6,13,3,13,9,2,2,13,10,8,8,11,0,0,6,0,0,0,0,0,0,13,2,6,9,13,3,6,6,13,9,0,3,6,8,2,8,13,2,10,0,3,11,2,13,11,13,6,0,8,3,13,2,6,0,5,10,0,4,2,4,9,10,10,6,13,9,13,2,0,0,0,0,6,9,0,11,2,5,8,0,6,3,6,0,10,8,13,13,0,0,0,5,0,0,0,0,0,0,0,0,0,0,0,0,0,0,0,0,0,0,0,0,0,0,0,0,0,0,0,0,0,0,0,0,0,0,0,0,0,0,0,0,0,0,0,0,0,0,0,0,0,0,0,0,0,0,0,0,0,0,0,0,0,0,0,0,0,0,0,0,0,0,0,0,0,0,0,0,0,0,0,0,0,0,0,0,0,0,0,0,0,0,0,0,0,0,0,0,0,0,0,0,0,0,0,0,0,0,0,0,0,0,0,0,0,0,0,0,0,0,0,0,0,0,0,0,0,0],"split_type":[0,0,0,0,0,0,0,0,0,0,0,0,0,0,0,0,0,0,0,0,0,0,0,0,0,0,0,0,0,0,0,0,0,0,0,0,0,0,0,0,0,0,0,0,0,0,0,0,0,0,0,0,0,0,0,0,0,0,0,0,0,0,0,0,0,0,0,0,0,0,0,0,0,0,0,0,0,0,0,0,0,0,0,0,0,0,0,0,0,0,0,0,0,0,0,0,0,0,0,0,0,0,0,0,0,0,0,0,0,0,0,0,0,0,0,0,0,0,0,0,0,0,0,0,0,0,0,0,0,0,0,0,0,0,0,0,0,0,0,0,0,0,0,0,0,0,0,0,0,0,0,0,0,0,0,0,0,0,0,0,0,0,0,0,0,0,0,0,0,0,0,0,0,0,0,0,0,0,0,0,0,0,0,0,0,0,0,0,0,0,0,0,0,0,0,0,0,0,0,0,0,0,0,0,0,0,0,0,0,0,0,0,0,0,0,0,0,0,0,0,0,0,0,0,0,0,0,0,0,0,0,0,0,0,0,0,0,0,0,0,0,0,0,0,0,0,0,0,0,0,0,0,0,0,0,0,0,0,0,0,0,0,0,0,0,0,0,0,0,0,0,0,0,0,0,0,0,0,0,0,0,0,0,0,0,0,0,0,0,0,0,0,0,0,0,0,0,0,0,0,0],"sum_hessian":[2.7834883E4,2.5912482E4,1.9224001E3,2.373888E4,2.1736E3,6.944E1,1.8529601E3,2.6630403E3,2.1075842E4,1.14528E3,1.0283201E3,4.64E1,2.304E1,4.1600003E0,1.8488002E3,1.2520001E3,1.41104E3,9.3424E3,1.173344E4,4.0512003E2,7.4016003E2,4.6608005E2,5.6224005E2,4.4000004E1,2.4E0,9.76E0,1.3280001E1,2.0800002E0,2.0800002E0,1.5200001E1,1.8336001E3,8.2288007E2,4.2912003E2,1.3193601E3,9.168001E1,8.1684805E3,1.17392E3,5.1993604E3,6.5340806E3,1.8784001E2,2.1728001E2,2.9856003E2,4.4160004E2,1.3904001E2,3.2704E2,1.776E2,3.8464E2,4.256E1,1.44E0,1.1200001E0,1.2800001E0,8.4800005E0,1.2800001E0,1.1040001E1,2.2400002E0,2.5600002E0,1.2640001E1,1.44E0,1.8321602E3,5.8896E2,2.3392001E2,8.832001E1,3.4080002E2,4.6272003E2,8.566401E2,5.024E1,4.1440002E1,6.9657603E3,1.2027201E3,3.4256003E2,8.3136005E2,5.0497603E3,1.496E2,4.5459204E3,1.9881602E3,5.7120003E1,1.3072002E2,6.400001E1,1.5328001E2,2.2848001E2,7.008E1,2.4528001E2,1.9632E2,2.4E0,1.3664001E2,1.8624002E2,1.408E2,1.6368001E2,1.3920001E1,3.7376004E2,1.0880001E1,2.8000002E1,1.4560001E1,7.3600006E0,1.1200001E0,1.6000001E0,9.440001E0,1.2800001E0,1.2800001E0,1.2800001E0,1.1360001E1,1.7600001E0,1.8304001E3,1.8560001E1,5.704E2,7.664001E1,1.5728001E2,4.0480003E1,4.7840004E1,1.9184001E2,1.4896E2,4.2096002E2,4.1760002E1,3.4080002E2,5.1584E2,4.4000004E1,6.2400002E0,3.3600002E1,7.8400006E0,2.5828801E3,4.3828804E3,1.9840002E1,1.1828801E3,8.4800005E0,3.3408002E2,5.0976004E2,3.2160004E2,4.0268804E3,1.02288007E3,1.1008001E2,3.9520004E1,4.5376E3,8.320001E0,1.9392002E3,4.8960003E1,2.8960003E1,2.8160002E1,4.8160004E1,8.2560005E1,1.5040001E1,4.8960003E1,9.4880005E1,5.8400005E1,1.3152E2,9.696001E1,4.8320004E1,2.1760002E1,1.1200001E1,2.3408002E2,1.8496E2,1.1360001E1,1.2800001E0,1.1200001E0,1.3520001E2,1.44E0,1.1072001E2,7.5520004E1,1.7600001E0,1.3904001E2,1.2304001E2,4.0640003E1,1.2000001E1,1.9200001E0,2.1760002E2,1.5616E2,9.120001E0,1.7600001E0,1.904E1,8.960001E0,9.120001E0,5.4400005E0,6.0800004E0,1.2800001E0,6.0800004E0,3.3600001E0,1.5360001E1,3.2000003E0,5.0336005E2,6.704001E1,8.960001E0,6.768001E1,4.9280003E1,1.0800001E2,1.1200001E0,3.9360004E1,4.3840004E1,4.0000005E0,4.0800003E1,1.5104001E2,4.3680004E1,1.0528001E2,5.1840004E1,3.6912003E2,8.64E0,3.3120003E1,6.0640003E1,2.8016003E2,5.0928003E2,6.5600004E0,5.1200004E0,3.888E1,2.5600002E0,3.6800003E0,8.8E0,2.4800001E1,3.8400002E0,4.0000005E0,1.3406401E3,1.2422401E3,3.6017603E3,7.8112006E2,7.6800003E0,1.2160001E1,9.7600006E2,2.0688002E2,3.2000003E0,5.28E0,1.2608001E2,2.0800002E2,2.1696002E2,2.9280002E2,1.9840002E1,3.0176E2,1.0363201E3,2.9905603E3,5.7264E2,4.5024002E2,1.24800005E1,9.7600006E1,3.5520004E1,4.0000005E0,3.9872002E3,5.504E2,5.9200006E0,2.4E0,9.4656006E2,9.926401E2,2.2560001E1,2.6400002E1,1.5520001E1,1.3440001E1,2.5920002E1,2.2400002E0,4.3200005E1,4.9600005E0,2.8000002E1,5.4560005E1,2.7200003E0,1.2320001E1,4.7520004E1,1.44E0,3.824E1,5.6640003E1,8.960001E0,4.9440002E1,2.7680002E1,1.03840004E2,7.8880005E1,1.8080002E1,1.152E1,3.6800003E1,1.9680002E1,2.0800002E0,7.6800003E0,3.5200002E0,2.2864001E2,5.4400005E0,1.2768001E2,5.7280003E1,1.0240001E1,1.1200001E0,1.2240001E2,1.2800001E1,9.5840004E1,1.4880001E1,2.5600002E0,7.296001E1,5.28E0,1.3376001E2,9.0560005E1,3.2480003E1,2.304E1,1.76E1,1.1200001E0,1.0880001E1,2.0208002E2,1.5520001E1,3.2160004E1,1.2400001E2,7.5200005E0,1.6000001E0,2.2400002E0,1.6800001E1,1.6000001E0,7.3600006E0,7.6800003E0,1.44E0,1.1200001E0,4.32E0,2.0800002E0,1.2800001E0],"tree_param":{"num_deleted":"0","num_feature":"14","num_nodes":"301","size_leaf_vector":"1"}},{"base_weights":[-6.045048E-3,-3.228602E-1,3.2749138E0,2.4383563E-1,-4.8008013E-1,-2.6764313E-2,3.3762474E0,-2.2729173E-1,8.678734E-1,8.297934E-1,-5.4814065E-1,3.018606E-1,-1.5652461E-1,3.3829799E0,-5.0974544E-2,3.3256638E0,-2.5713924E-1,-1.7279719E-1,1.1716005E0,2.1406596E0,-5.332326E-1,-6.902499E-1,-3.3521798E-1,1.1964198E0,-3.3470517E-1,5.244588E-1,3.3878086E0,-9.125649E-2,7.4891365E-1,4.0472075E-1,5.9123456E-1,2.1516897E-1,-3.86832E-1,1.372371E0,-3.0867323E-1,2.9872668E-1,1.5785826E0,9.806171E-1,3.2181919E0,4.262214E-1,-8.195406E-1,-2.166492E-1,-7.8422093E-1,-1.6434363E-1,-5.205256E-1,-6.0674895E-2,2.0422187E0,-4.320032E-1,1.7828296E-1,1.0918212E0,-4.0676665E-2,1.5931787E0,3.389265E-1,1.2600153E-2,1.0539266E-1,2.2824962E-1,-5.628416E-1,5.89449E-2,7.132673E-1,-3.1542328E-1,-8.008051E-1,1.5993115E0,1.2427262E-2,-6.9654405E-1,-2.110499E-2,1.2645978E-1,2.0300694E0,2.0370622E0,9.7315323E-1,1.3238566E0,1.5038683E-1,3.7591946E0,2.5698361E0,-5.159232E-2,1.257254E0,-3.4621072E-1,-9.107075E-1,-2.3797551E-2,-5.1112294E-1,-6.190156E-1,-9.5506084E-1,-5.962603E-1,2.4028096E-2,3.504729E-1,-5.581135E-1,-7.945457E-2,7.556901E-2,8.0449685E-2,2.5754425E-1,-6.596107E-1,6.94993E-2,1.2520838E-2,1.6346721E-1,1.7393252E-2,2.1594596E-1,2.9038096E-2,-9.0155624E-2,1.5872584E-1,-2.2488128E-1,2.515861E-1,1.503923E0,-4.222513E-1,-9.012709E-2,-4.4471788E-1,-9.0547055E-1,8.757448E-1,2.0606728E0,1.007874E0,-7.736256E-1,3.1844234E-1,-7.2565055E-1,5.5489683E-1,-4.3377903E-1,6.807946E-1,-6.023953E-1,2.4968927E0,9.7284526E-1,1.3807735E0,2.2971694E0,1.0950896E0,-6.086742E-1,3.0496244E0,9.287218E-1,9.302467E-1,-1.996872E-1,7.158939E-2,3.7793245E0,3.1987607E0,1.6798311E0,2.5693035E-1,-7.3642313E-1,3.6187693E-1,8.7348664E-1,8.2772754E-2,-7.372799E-1,-7.8495973E-1,-1.014524E0,2.1118852E-1,-3.498027E-1,-5.7608736E-1,7.0048386E-1,-6.7759925E-1,-4.3703073E-1,-9.979089E-1,-7.8405285E-1,1.863697E0,-6.533234E-1,3.2169864E-1,-1.4964375E-1,1.2981225E0,-4.6348295E-1,-4.1138828E-1,-6.806953E-1,-8.431689E-1,-2.915315E-1,-5.189151E-1,7.3505944E-1,1.29153E-2,1.8184596E-1,-9.08506E-2,-7.1563474E-3,-4.1120175E-2,4.5975756E-2,-6.589486E-2,1.618917E-1,-2.9206032E-2,-4.899099E-2,-1.585196E-2,9.546445E-2,1.5127084E-1,-4.9299624E-2,-9.959693E-2,-2.7857756E-2,1.3189833E-1,-8.445263E-3,-7.65084E-4,2.2182234E-1,1.668254E-1,3.9483733E-3,-1.3858641E-2,-9.118301E-2,-6.721013E-2,1.310106E-1,-3.6609355E-2,-8.051389E-2,7.1588576E-2,-8.433574E-2,-1.8922832E-2,-7.8369856E-2,7.862866E-2,-7.2526425E-2,-8.387199E-2,4.8095595E-2,2.7931958E-1,6.509317E-2,1.3993564E-1,-2.8780818E-2,1.08764805E-1,2.3495717E-1,2.5675067E-1,1.9751479E-1,1.9754736E-1,8.533791E-2,-9.396889E-2,1.2428852E-1,3.8484976E-1,1.9041388E-1,2.5605485E-2,1.4848942E-1,1.5626973E-1,-2.1694505E-3,7.895828E-3,-5.811006E-2,3.8297978E-1,2.1470515E-1,3.2415506E-1,5.618737E-2,2.5092384E-1,1.0320046E-1,-3.3487823E-2,5.3986598E-2,8.118365E-2,-8.510341E-2,1.4867964E-1,4.274874E-3,1.12426355E-1,-2.1135746E-2,1.583128E-2,-8.2463495E-2,-8.0139965E-2,5.7944924E-2,-2.3573158E-2,-1.0333913E-1,2.0036021E-1,1.6804254E-2,-2.9968843E-2,-7.894709E-2,6.5136976E-3,-6.158448E-2,-3.934584E-2,1.7125301E-1,-7.432875E-2,-5.2313954E-2,-3.785721E-2,-7.606977E-2,-1.0016101E-1,5.5577535E-2,-5.363026E-2,-9.0780616E-2,3.3609313E-1,1.9323526E-2,-7.3183686E-2,-2.543146E-2,-3.676019E-2,6.326317E-2,7.842825E-3,-3.157466E-2,2.0737015E-1,2.2743223E-2,-5.1455762E-2,8.557364E-2,-6.832973E-2,-2.5838763E-2,-7.089281E-2,3.00674E-2,2.775375E-2,-8.9989275E-2,-7.5337134E-2,2.3287723E-2,-7.751959E-2,3.6504593E-2,1.2132098E-1,-6.073741E-2],"categories":[],"categories_nodes":[],"categories_segments":[],"categories_sizes":[],"default_left":[1,0,0,1,0,0,1,1,0,0,0,0,0,0,0,0,0,0,0,0,0,0,0,0,0,0,0,0,0,0,0,0,0,0,0,0,0,0,0,0,0,0,0,1,0,0,0,0,0,0,0,0,0,0,0,0,0,0,0,1,0,0,0,0,0,0,0,0,0,0,0,0,0,0,0,0,0,1,0,1,0,0,0,1,0,0,0,0,0,0,0,0,0,0,0,0,0,0,0,0,0,0,0,0,0,0,0,0,0,0,0,0,0,0,0,0,0,0,0,0,0,0,0,0,0,0,0,0,0,0,0,0,0,0,0,0,0,0,0,0,1,0,0,1,0,0,0,0,0,0,0,0,1,0,0,0,0,0,0,0,0,0,0,0,0,0,0,0,0,0,0,0,0,0,0,0,0,0,0,0,0,0,0,0,0,0,0,0,0,0,0,0,0,0,0,0,0,0,0,0,0,0,0,0,0,0,0,0,0,0,0,0,0,0,0,0,0,0,0,0,0,0,0,0,0,0,0,0,0,0,0,0,0,0,0,0,0,0,0,0,0,0,0,0,0,0,0,0,0,0,0,0,0,0,0,0,0,0,0,0,0,0,0,0,0,0,0,0,0,0,0,0,0],"id":1,"left_children":[1,3,5,7,9,11,13,15,17,19,21,-1,23,25,27,29,31,33,35,37,39,41,43,45,47,49,51,-1,53,-1,55,57,59,61,63,65,67,69,71,73,75,77,79,81,83,85,87,89,-1,91,-1,93,-1,-1,-1,-1,95,97,99,101,103,105,107,109,111,113,115,117,119,121,123,125,127,129,131,133,135,137,139,141,143,145,147,149,151,-1,-1,-1,-1,153,155,-1,-1,-1,-1,-1,-1,157,159,161,163,165,167,169,171,173,175,177,179,181,183,185,187,189,191,193,195,197,199,201,203,205,207,209,211,-1,213,215,217,219,221,-1,223,225,227,229,231,233,235,237,239,241,243,245,247,249,251,253,255,257,259,261,263,265,267,269,271,-1,-1,-1,-1,-1,-1,-1,-1,-1,-1,-1,-1,-1,-1,-1,-1,-1,-1,-1,-1,-1,-1,-1,-1,-1,-1,-1,-1,-1,-1,-1,-1,-1,-1,-1,-1,-1,-1,-1,-1,-1,-1,-1,-1,-1,-1,-1,-1,-1,-1,-1,-1,-1,-1,-1,-1,-1,-1,-1,-1,-1,-1,-1,-1,-1,-1,-1,-1,-1,-1,-1,-1,-1,-1,-1,-1,-1,-1,-1,-1,-1,-1,-1,-1,-1,-1,-1,-1,-1,-1,-1,-1,-1,-1,-1,-1,-1,-1,-1,-1,-1,-1,-1,-1,-1,-1,-1,-1,-1,-1,-1,-1,-1,-1,-1,-1],"loss_changes":[2.903318E4,2.2695227E3,8.229922E2,1.6267765E3,1.7781128E3,2.9806774E1,5.523242E1,3.3525366E2,7.5255176E2,1.7616104E3,5.73334E2,0E0,1.779339E1,3.1097656E1,4.586728E0,4.9578766E1,1.9168674E2,1.1350741E2,6.541123E2,6.249065E2,1.3325916E2,5.05729E2,2.402262E2,9.283588E0,1.40663805E1,3.19134E0,8.125E-1,0E0,5.295824E-1,0E0,1.4304753E1,5.244568E1,7.230408E1,1.3473061E1,5.5297623E1,1.7486934E2,3.467815E2,6.916278E1,8.155664E1,4.4480553E1,1.5779587E1,1.0694718E2,2.6710596E2,3.2138235E2,1.1938049E2,3.2581143E0,1.3459263E0,7.1804676E0,0E0,1.6332011E0,0E0,2.690013E0,0E0,0E0,0E0,0E0,1.6395122E0,1.4608364E1,5.837564E1,5.038434E1,1.3031128E1,1.0700211E1,6.4605823E0,6.467491E0,6.817603E1,2.166077E2,2.3762772E1,1.1872681E2,1.0547327E2,1.145105E2,1.9930655E1,5.8466797E0,6.260852E1,1.5397979E1,3.388217E1,1.0437153E1,3.2784424E0,8.733944E1,5.9066147E1,5.1142334E1,3.3371094E1,1.696036E2,1.422844E2,1.17243324E2,6.249463E1,0E0,0E0,0E0,0E0,2.6653671E0,8.377177E0,0E0,0E0,0E0,0E0,0E0,0E0,1.848078E1,1.4006821E1,1.4375446E1,1.577504E1,1.2372711E1,4.839247E1,8.669189E0,1.5471664E1,7.0588713E0,7.2300262E0,2.2604299E0,2.7932596E-1,7.343816E0,5.579071E0,2.7555946E1,1.41483135E1,4.5722687E1,5.97222E1,1.796872E1,1.002396E1,5.57146E1,3.9317627E1,1.05743164E2,2.539633E1,2.160852E1,5.254184E1,1.36306095E1,5.4384336E0,0E0,3.1835938E0,6.083374E0,2.5562256E1,8.614369E0,4.703932E0,0E0,1.8522205E1,9.548449E0,2.6697178E0,3.7297363E0,2.218399E0,5.090602E1,1.0285236E1,1.8087173E1,4.3163788E1,3.6624878E1,2.1996552E1,2.1968262E1,2.8289246E1,6.801683E1,3.6564514E1,2.1757745E2,6.587601E1,5.7768112E1,5.9710655E0,6.602066E1,5.285724E1,2.0438309E0,4.018073E0,2.8706903E0,7.151998E0,0E0,0E0,0E0,0E0,0E0,0E0,0E0,0E0,0E0,0E0,0E0,0E0,0E0,0E0,0E0,0E0,0E0,0E0,0E0,0E0,0E0,0E0,0E0,0E0,0E0,0E0,0E0,0E0,0E0,0E0,0E0,0E0,0E0,0E0,0E0,0E0,0E0,0E0,0E0,0E0,0E0,0E0,0E0,0E0,0E0,0E0,0E0,0E0,0E0,0E0,0E0,0E0,0E0,0E0,0E0,0E0,0E0,0E0,0E0,0E0,0E0,0E0,0E0,0E0,0E0,0E0,0E0,0E0,0E0,0E0,0E0,0E0,0E0,0E0,0E0,0E0,0E0,0E0,0E0,0E0,0E0,0E0,0E0,0E0,0E0,0E0,0E0,0E0,0E0,0E0,0E0,0E0,0E0,0E0,0E0,0E0,0E0,0E0,0E0,0E0,0E0,0E0,0E0,0E0,0E0,0E0,0E0,0E0,0E0,0E0,0E0,0E0,0E0,0E0,0E0,0E0],"parents":[2147483647,0,0,1,1,2,2,3,3,4,4,5,5,6,6,7,7,8,8,9,9,10,10,12,12,13,13,14,14,15,15,16,16,17,17,18,18,19,19,20,20,21,21,22,22,23,23,24,24,25,25,26,26,28,28,30,30,31,31,32,32,33,33,34,34,35,35,36,36,37,37,38,38,39,39,40,40,41,41,42,42,43,43,44,44,45,45,46,46,47,47,49,49,51,51,56,56,57,57,58,58,59,59,60,60,61,61,62,62,63,63,64,64,65,65,66,66,67,67,68,68,69,69,70,70,71,71,72,72,73,73,74,74,75,75,76,76,77,77,78,78,79,79,80,80,81,81,82,82,83,83,84,84,89,89,90,90,97,97,98,98,99,99,100,100,101,101,102,102,103,103,104,104,105,105,106,106,107,107,108,108,109,109,110,110,111,111,112,112,113,113,114,114,115,115,116,116,117,117,118,118,119,119,120,120,121,121,122,122,123,123,124,124,126,126,127,127,128,128,129,129,130,130,132,132,133,133,134,134,135,135,136,136,137,137,138,138,139,139,140,140,141,141,142,142,143,143,144,144,145,145,146,146,147,147,148,148,149,149,150,150,151,151,152,152,153,153,154,154,155,155,156,156],"right_children":[2,4,6,8,10,12,14,16,18,20,22,-1,24,26,28,30,32,34,36,38,40,42,44,46,48,50,52,-1,54,-1,56,58,60,62,64,66,68,70,72,74,76,78,80,82,84,86,88,90,-1,92,-1,94,-1,-1,-1,-1,96,98,100,102,104,106,108,110,112,114,116,118,120,122,124,126,128,130,132,134,136,138,140,142,144,146,148,150,152,-1,-1,-1,-1,154,156,-1,-1,-1,-1,-1,-1,158,160,162,164,166,168,170,172,174,176,178,180,182,184,186,188,190,192,194,196,198,200,202,204,206,208,210,212,-1,214,216,218,220,222,-1,224,226,228,230,232,234,236,238,240,242,244,246,248,250,252,254,256,258,260,262,264,266,268,270,272,-1,-1,-1,-1,-1,-1,-1,-1,-1,-1,-1,-1,-1,-1,-1,-1,-1,-1,-1,-1,-1,-1,-1,-1,-1,-1,-1,-1,-1,-1,-1,-1,-1,-1,-1,-1,-1,-1,-1,-1,-1,-1,-1,-1,-1,-1,-1,-1,-1,-1,-1,-1,-1,-1,-1,-1,-1,-1,-1,-1,-1,-1,-1,-1,-1,-1,-1,-1,-1,-1,-1,-1,-1,-1,-1,-1,-1,-1,-1,-1,-1,-1,-1,-1,-1,-1,-1,-1,-1,-1,-1,-1,-1,-1,-1,-1,-1,-1,-1,-1,-1,-1,-1,-1,-1,-1,-1,-1,-1,-1,-1,-1,-1,-1,-1,-1],"split_conditions":[1.7205435E0,1.5777634E-2,3.7962976E0,6.286125E-1,1.8378171E0,1.4006239E0,5.203078E0,2.3833494E0,3.2884924E2,3.2430267E-1,3.3883463E2,3.018606E-1,2.9892567E1,1.3828564E0,2.2010006E1,3.079567E-1,3.519026E-3,3.6941136E-3,5.5809254E1,2.5468013E2,6.9010353E-1,2.3145294E-1,6.866738E-2,1.0923444E0,2.990574E2,2.4057467E0,2.5200188E0,-9.125649E-2,8.697618E-2,4.0472075E-1,1.811736E-2,4.9415398E-1,3.268144E-2,2.7715456E-1,2.925552E2,8.00394E2,7.371509E-3,1.1834824E0,1.5171994E-1,3.003839E2,8.005543E-1,9.484043E-1,9.558277E-1,5.544071E-1,1.359005E-1,1.7966548E-1,1.9041309E0,2.0265229E0,1.7828296E-1,8.145619E0,-4.0676665E-2,6.9790825E1,3.389265E-1,1.2600153E-2,1.0539266E-1,2.2824962E-1,1.174648E0,2.237174E-2,1.303924E2,4.7232246E-1,5.37447E-1,-8.0512725E-3,1.1481388E-2,-4.959924E-2,-3.1122437E-1,4.6003116E2,1.0433311E0,1.0470446E2,9.322237E2,8.691596E1,7.0267944E1,3.1794216E-3,1.4969826E-1,5.09325E-1,4.2043877E-1,5.842037E-1,3.0894257E-2,2.813374E0,4.9338875E0,4.8838094E-2,3.0792188E2,3.269919E0,9.4483757E-1,3.3875513E0,1.0106354E0,-7.945457E-2,7.556901E-2,8.0449685E-2,2.5754425E-1,9.5046096E-2,1.5811863E0,1.2520838E-2,1.6346721E-1,1.7393252E-2,2.1594596E-1,2.9038096E-2,-9.0155624E-2,2.2011532E-2,-7.025611E-1,3.6012627E1,6.450043E-1,5.891078E-3,6.916089E2,4.295535E0,2.3501923E0,3.3554255E-3,4.2273304E-3,1.3498522E3,-1.4342405E-2,4.834005E1,5.6700716E-3,1.2034022E3,1.0474383E-2,3.23695E-2,6.614273E2,4.4385357E0,2.4978327E-2,6.323847E2,4.238343E-3,8.825512E-1,7.2485065E2,9.1426426E-1,1.9761671E2,8.387375E-1,1.4969826E-1,7.158939E-2,8.697618E-2,3.2880974E1,1.053014E0,7.6396594E0,5.032298E0,3.6187693E-1,2.686388E2,1.4500378E-1,3.533529E-2,7.06967E2,3.461876E-1,1.6304047E-1,3.1810336E2,3.269919E0,1.0002277E0,3.0686404E2,2.4063845E1,1.3257465E0,2.176647E-15,2.6420784E-1,6.041222E2,1.4397174E1,3.287425E-2,1.9879227E1,4.2382074E2,6.770973E-1,1.1441646E2,5.1486466E-2,-9.744377E-1,1.7966548E-1,3.0708418E0,1.29153E-2,1.8184596E-1,-9.08506E-2,-7.1563474E-3,-4.1120175E-2,4.5975756E-2,-6.589486E-2,1.618917E-1,-2.9206032E-2,-4.899099E-2,-1.585196E-2,9.546445E-2,1.5127084E-1,-4.9299624E-2,-9.959693E-2,-2.7857756E-2,1.3189833E-1,-8.445263E-3,-7.65084E-4,2.2182234E-1,1.668254E-1,3.9483733E-3,-1.3858641E-2,-9.118301E-2,-6.721013E-2,1.310106E-1,-3.6609355E-2,-8.051389E-2,7.1588576E-2,-8.433574E-2,-1.8922832E-2,-7.8369856E-2,7.862866E-2,-7.2526425E-2,-8.387199E-2,4.8095595E-2,2.7931958E-1,6.509317E-2,1.3993564E-1,-2.8780818E-2,1.08764805E-1,2.3495717E-1,2.5675067E-1,1.9751479E-1,1.9754736E-1,8.533791E-2,-9.396889E-2,1.2428852E-1,3.8484976E-1,1.9041388E-1,2.5605485E-2,1.4848942E-1,1.5626973E-1,-2.1694505E-3,7.895828E-3,-5.811006E-2,3.8297978E-1,2.1470515E-1,3.2415506E-1,5.618737E-2,2.5092384E-1,1.0320046E-1,-3.3487823E-2,5.3986598E-2,8.118365E-2,-8.510341E-2,1.4867964E-1,4.274874E-3,1.12426355E-1,-2.1135746E-2,1.583128E-2,-8.2463495E-2,-8.0139965E-2,5.7944924E-2,-2.3573158E-2,-1.0333913E-1,2.0036021E-1,1.6804254E-2,-2.9968843E-2,-7.894709E-2,6.5136976E-3,-6.158448E-2,-3.934584E-2,1.7125301E-1,-7.432875E-2,-5.2313954E-2,-3.785721E-2,-7.606977E-2,-1.0016101E-1,5.5577535E-2,-5.363026E-2,-9.0780616E-2,3.3609313E-1,1.9323526E-2,-7.3183686E-2,-2.543146E-2,-3.676019E-2,6.326317E-2,7.842825E-3,-3.157466E-2,2.0737015E-1,2.2743223E-2,-5.1455762E-2,8.557364E-2,-6.832973E-2,-2.5838763E-2,-7.089281E-2,3.00674E-2,2.775375E-2,-8.9989275E-2,-7.5337134E-2,2.3287723E-2,-7.751959E-2,3.6504593E-2,1.2132098E-1,-6.073741E-2],"split_indices":[11,13,1,9,12,12,12,12,2,9,2,0,6,10,8,9,13,13,12,2,10,9,13,3,6,11,8,0,4,0,4,9,4,1,2,2,13,13,13,2,10,10,10,9,9,4,10,1,0,8,0,13,0,0,0,0,12,4,12,9,10,11,4,11,1,2,10,12,6,6,6,4,9,9,10,9,4,12,1,11,2,12,10,12,10,0,0,0,0,4,10,0,0,0,0,0,0,4,1,12,10,13,2,12,1,13,4,6,11,12,13,6,13,4,2,3,4,2,13,9,2,13,2,10,9,0,4,3,12,8,8,0,6,13,13,2,9,13,2,12,11,2,8,11,3,9,2,12,13,1,3,10,8,13,9,4,3,0,0,0,0,0,0,0,0,0,0,0,0,0,0,0,0,0,0,0,0,0,0,0,0,0,0,0,0,0,0,0,0,0,0,0,0,0,0,0,0,0,0,0,0,0,0,0,0,0,0,0,0,0,0,0,0,0,0,0,0,0,0,0,0,0,0,0,0,0,0,0,0,0,0,0,0,0,0,0,0,0,0,0,0,0,0,0,0,0,0,0,0,0,0,0,0,0,0,0,0,0,0,0,0,0,0,0,0,0,0,0,0,0,0,0,0],"split_type":[0,0,0,0,0,0,0,0,0,0,0,0,0,0,0,0,0,0,0,0,0,0,0,0,0,0,0,0,0,0,0,0,0,0,0,0,0,0,0,0,0,0,0,0,0,0,0,0,0,0,0,0,0,0,0,0,0,0,0,0,0,0,0,0,0,0,0,0,0,0,0,0,0,0,0,0,0,0,0,0,0,0,0,0,0,0,0,0,0,0,0,0,0,0,0,0,0,0,0,0,0,0,0,0,0,0,0,0,0,0,0,0,0,0,0,0,0,0,0,0,0,0,0,0,0,0,0,0,0,0,0,0,0,0,0,0,0,0,0,0,0,0,0,0,0,0,0,0,0,0,0,0,0,0,0,0,0,0,0,0,0,0,0,0,0,0,0,0,0,0,0,0,0,0,0,0,0,0,0,0,0,0,0,0,0,0,0,0,0,0,0,0,0,0,0,0,0,0,0,0,0,0,0,0,0,0,0,0,0,0,0,0,0,0,0,0,0,0,0,0,0,0,0,0,0,0,0,0,0,0,0,0,0,0,0,0,0,0,0,0,0,0,0,0,0,0,0,0,0,0,0,0,0,0,0,0,0,0,0,0,0,0,0,0,0,0,0,0,0,0,0,0,0],"sum_hessian":[2.7929072E4,2.5470498E4,2.4585745E3,5.531559E3,1.9938938E4,7.3232414E1,2.385342E3,3.1523086E3,2.3792505E3,9.8429407E2,1.8954645E4,2.0830054E0,7.1149414E1,2.3806785E3,4.663715E0,2.534126E1,3.1269673E3,5.37619E2,1.8416313E3,5.0145657E2,4.828375E2,1.1366288E4,7.588356E3,7.614795E0,6.353462E1,4.199703E0,2.3764788E3,2.1774423E0,2.4862723E0,1.9670612E1,5.670648E0,6.7351984E2,2.4534475E3,4.2719315E1,4.9489972E2,5.8617285E2,1.2554585E3,2.4240254E2,2.5905402E2,1.1085611E2,3.7198138E2,1.8824265E3,9.483861E3,3.9489077E3,3.6394482E3,3.4360797E0,4.1787157E0,6.1504547E1,2.030068E0,2.5025392E0,1.6971642E0,2.814412E0,2.3736643E3,1.2817411E0,1.2045312E0,1.9034433E0,3.7672048E0,5.135636E2,1.5995625E2,2.0940022E3,3.5944522E2,3.645918E1,6.2601347E0,2.1009811E2,2.848016E2,5.3410315E2,5.2069695E1,7.1308716E2,5.4237134E2,1.7107922E2,7.1323326E1,1.386027E2,1.2045131E2,7.0981964E1,3.9874146E1,6.08502E1,3.111312E2,1.1381378E3,7.4428864E2,4.8237896E3,4.6600723E3,1.1985629E3,2.750345E3,1.5021857E2,3.4892297E3,1.8235384E0,1.6125413E0,2.0135632E0,2.1651523E0,4.208772E1,1.9416828E1,1.3425726E0,1.1599665E0,1.175487E0,1.6389252E0,1.111083E0,2.6561215E0,3.8030548E2,1.332581E2,1.01819695E2,5.813655E1,1.4198717E3,6.741306E2,8.284461E1,2.7660062E2,1.5324102E1,2.1135077E1,2.637652E0,3.622483E0,5.5798454E0,2.0451826E2,1.1873255E2,1.6606906E2,3.0340936E2,2.3069374E2,3.5175846E1,1.6893848E1,2.0419121E2,5.0889597E2,5.0384018E2,3.853119E1,3.0621334E1,1.4045789E2,2.1583801E1,4.973952E1,1.1510308E0,1.3745168E2,6.9057526E1,5.1393784E1,4.9366653E1,2.1615313E1,4.395684E0,3.5478462E1,2.9394373E1,3.1455828E1,1.4457541E2,1.6655577E2,6.616032E2,4.7653458E2,7.0690985E2,3.7378838E1,3.6470315E3,1.176758E3,3.7225168E3,9.3755524E2,2.645473E1,1.1721082E3,1.0130841E3,1.7372609E3,6.9134155E1,8.1084404E1,1.5901923E3,1.8990375E3,2.722173E1,1.4865991E1,1.042263E1,8.994199E0,3.7470682E2,5.598645E0,2.3508965E1,1.0974914E2,2.4103218E1,7.771648E1,2.696118E0,5.5440434E1,4.873714E2,9.325003E2,6.3350836E2,4.0622246E1,1.2639815E0,8.158063E1,2.4119305E2,3.5407562E1,1.0228739E1,5.0953646E0,1.5633161E0,1.957176E1,1.1385354E0,1.4991165E0,1.0054195E0,2.6170635E0,2.9527147E0,2.6271307E0,3.804253E1,1.6647574E2,1.0691127E2,1.1821285E1,9.8659195E1,6.740987E1,2.826443E2,2.076509E1,1.89567E2,4.112675E1,2.9868404E1,5.3074427E0,1.2540914E1,4.3529344E0,1.5839034E2,4.5800865E1,2.728583E2,2.3603764E2,1.0698717E2,3.96853E2,3.3105247E1,5.425941E0,1.6649857E1,1.39714775E1,6.423218E1,7.622571E1,1.2582591E1,9.00121E0,2.9200083E1,2.0539438E1,1.3202298E2,5.4287043E0,6.772915E1,1.3283768E0,2.1278181E1,3.01156E1,1.5908242E1,3.3458412E1,1.0705136E0,2.0544798E1,1.9955881E1,1.552258E1,5.8516893E0,2.3542683E1,2.7233057E0,2.8732521E1,1.4326187E2,1.3135383E0,4.2587633E0,1.6229701E2,1.4483356E1,6.471199E2,4.2928537E2,4.7249203E1,4.1233917E1,6.656759E2,1.8256367E1,1.912247E1,2.5561467E3,1.0908848E3,9.985721E2,1.7818604E2,3.7140247E3,8.492127E0,3.140902E2,6.23465E2,1.3417053E1,1.3037676E1,9.7869507E2,1.9341304E2,3.1487112E2,6.9821295E2,7.322934E2,1.00496747E3,3.9549088E1,2.958507E1,7.8649376E1,2.4350228E0,5.713454E2,1.0188468E3,1.846202E3,5.2835445E1,1.1238946E0,2.6097836E1,7.6723986E0,7.1935916E0,8.1754265E0,2.247203E0,6.7029805E0,2.2912183E0],"tree_param":{"num_deleted":"0","num_feature":"14","num_nodes":"273","size_leaf_vector":"1"}},{"base_weights":[-7.905023E-3,-2.9698193E-1,2.6145012E0,-4.0193674E-1,5.55004E-1,2.6678212E0,3.1474918E-1,7.0572084E-1,-4.6136066E-1,1.007822E0,-1.524743E-1,-3.4250876E-1,2.6870985E0,-2.629859E-1,1.4533535E0,1.6906492E0,-5.1121646E-1,-5.1968753E-1,1.4311543E-1,1.4908692E-1,1.4010004E0,-5.4500455E-1,7.021031E-2,1.294018E-1,-5.1949173E-1,2.6928735E0,2.1068881E-1,8.58536E-1,-4.6028164E-1,-9.064494E-2,1.8599691E0,5.4809713E-1,2.4355543E0,3.284144E-1,-7.7116305E-1,-3.928597E-1,-7.3648286E-1,3.9961922E-1,-2.7305123E-1,-3.641685E-2,6.7945254E-1,4.9035403E-1,1.5718037E0,-4.5726782E-1,-1.0027658E0,2.970801E-1,-3.3781E-1,2.5066316E-1,-8.197816E-1,1.9552413E0,2.6976743E0,-5.320353E-1,1.5134938E-1,-6.253815E-2,1.2366245E0,-5.9515446E-1,8.195088E-1,2.5535095E-1,7.7279055E-1,1.3827814E0,3.186101E-1,1.1163818E0,2.6927803E0,1.8501669E-1,2.682533E-1,-4.1080344E-1,-8.7637216E-1,-4.869496E-1,-1.4695065E-1,-8.563626E-1,-4.72581E-1,-9.44125E-2,7.3674256E-1,-5.4784185E-1,-5.304824E-4,3.3773413E-1,-2.0469435E-1,-1.2431942E-1,1.059756E0,3.2794708E-1,1.1551698E0,1.9245069E0,1.304672E0,8.762375E-1,-4.89512E-1,-2.0871207E-2,-1.0593066E0,3.6406097E-1,-8.5670674E-1,-4.020141E-1,2.3538978E0,-5.566344E-1,9.980072E-1,-1.0287637E0,3.4009498E-2,2.2581265E0,9.9362516E-1,2.7004498E-1,1.8942187E0,-9.5304616E-2,2.730157E-2,1.6222286E0,-1.8906597E-2,5.306196E-2,-7.514707E-1,-6.54562E-2,1.6188842E-1,1.5775418E0,-1.8446638E-1,2.9731522E0,7.3263526E-1,-9.534845E-2,1.1800357E0,1.7591647E0,4.9837327E-1,2.1747074E0,2.8320951E0,4.378541E-1,-5.146565E-1,-7.766219E-2,-7.3168975E-1,-7.2677886E-1,-9.612819E-1,-1.01620786E-1,-5.140275E-1,-2.7424997E-1,1.77916E-1,-2.4132706E-1,-9.034352E-1,-6.303188E-1,-2.1907082E-1,2.203788E0,-1.796448E-1,1.4291562E-1,1.0488602E0,1.2867883E0,-6.23647E-1,-3.6583877E-1,2.3207396E-1,1.2582972E-2,1.0060053E0,-4.7911966E-1,7.840555E-2,1.5170257E-1,-6.772353E-1,1.3683647E0,-1.14840575E-1,2.6712809E-3,5.6008965E-1,-3.140788E-1,1.5608011E0,1.6792293E0,2.4403083E0,1.4154716E0,-4.6660665E-1,-7.921469E-2,1.4606045E0,-3.6968082E-1,-9.265671E-1,8.535922E-2,-5.4924744E-1,-1.7192094E-2,-1.0733342E0,3.3701777E-1,1.427653E0,-7.119898E-2,-1.0206606E0,-3.2668424E-1,-1.0592473E0,2.8218928E-1,2.4538167E-2,-1.3489598E-2,-6.918578E-2,1.6473244E-1,-1.5725002E-2,-1.623098E-2,-1.1083281E-1,7.377012E-2,2.3773758E0,1.8624465E-1,2.8821808E-1,2.3430073E-1,-2.9940993E-2,3.5935543E-2,2.2110248E-1,-3.239464E-1,1.18708074E-1,-3.6200085E-1,-9.3573457E-1,1.9208682E-1,2.4472829E-2,-7.0843406E-2,2.1929142E-1,7.45266E-2,3.0938023E-1,1.071074E-1,-1.3225319E-2,1.8222693E-2,-8.025534E-2,2.6930947E-2,1.5001124E-1,2.8108642E-1,5.1082205E-2,9.065262E-2,-5.613124E-2,2.9062787E-1,1.22830726E-1,2.8524727E-1,-9.353479E-3,6.51929E-2,-4.609331E-2,-2.0800518E-2,-9.0707235E-2,4.0503792E-2,-3.7941452E-2,1.1947994E-2,-7.920747E-2,-8.223151E-2,-2.9426917E-2,-1.0608231E-1,-6.0886618E-2,9.8097526E-2,-2.5310202E-2,-4.2619262E-2,-6.816133E-2,6.325155E-3,-3.9978355E-2,7.850244E-2,-3.1619012E-2,-3.515142E-2,6.297421E-2,-8.784901E-2,-1.1986321E-1,-5.76152E-2,-1.0468292E-1,2.7624173E-2,-3.612279E-2,3.0136168E-1,-9.530897E-2,-2.5358928E-2,7.136612E-2,-3.2573637E-2,6.826704E-2,3.537746E-2,1.2700985E-1,-2.0818692E-2,2.0945719E-1,-8.387727E-2,-4.3534707E-2,-1.65962E-2,-6.066665E-2,-3.4632106E-4,7.1050994E-2,6.72789E-2,-8.13717E-3,1.2763159E-1,1.4250054E-2,6.6155912E-3,-5.8989655E-2,6.827955E-2,-2.8447885E-2,7.0457003E-4,1.1750553E-1,5.143316E-3,-1.0089288E-1,4.285519E-4,1.5337716E-1,6.3657366E-2,-6.0857207E-2,2.7229538E-2,-4.1294403E-2,4.0246802E-3,7.1553E-2,3.8755387E-2,-7.194902E-2,6.607171E-2,1.9433263E-1,1.9955073E-1,7.518292E-2,1.9892138E-1,2.7860478E-1,1.6421555E-1,1.164549E-1,-8.482724E-2,5.8545616E-2,2.0916787E-1,-3.5431277E-2,-5.7335984E-2,-2.8879826E-3,-9.479704E-2,-1.3330397E-2,-1.1079148E-2,-6.9227725E-2,-1.0871383E-1,-3.41312E-2,5.6785192E-2,1.975962E-2,1.630629E-1,-1.6598329E-2,-7.148424E-2,1.2381359E-1,-1.6654313E-2,-1.0607381E-1,-2.3016369E-2,-8.724993E-2,-1.5111948E-2,-1.0945927E-1,6.413658E-2,2.4791963E-1,-7.9624705E-2,1.03085734E-1,5.9150584E-2,-9.646276E-2,2.4305774E-2,-8.760682E-2,-1.022306E-1,-2.1349203E-2,-3.324459E-2,7.052383E-2],"categories":[],"categories_nodes":[],"categories_segments":[],"categories_sizes":[],"default_left":[1,1,0,0,0,0,0,0,0,0,0,0,1,0,0,0,0,0,0,0,1,0,0,0,0,0,0,0,1,0,0,0,0,0,0,0,0,0,1,0,0,0,0,0,0,0,0,0,0,0,0,0,0,0,0,0,0,0,0,0,0,0,0,0,0,0,0,0,0,0,0,0,1,0,0,0,0,0,0,0,1,0,0,0,0,0,0,0,0,0,0,0,0,0,0,0,0,0,0,0,0,0,0,1,0,0,0,0,0,0,0,0,0,0,0,0,0,0,0,0,0,0,0,0,0,0,0,1,0,0,0,0,0,0,0,1,0,0,0,0,0,0,0,0,0,0,0,0,0,0,0,0,0,0,0,0,0,0,0,0,0,0,0,0,0,0,0,0,0,0,0,0,0,0,0,0,0,0,0,0,0,0,0,0,0,0,0,0,1,0,0,0,0,0,0,0,0,0,0,0,0,0,0,0,0,0,0,0,0,0,0,0,0,0,0,0,0,0,0,0,0,0,0,0,0,0,0,0,0,0,0,0,0,0,0,0,0,0,0,0,0,0,0,0,0,0,0,0,0,0,0,0,0,0,0,0,0,0,0,0,0,0,0,0,0,0,0,0,0,0,0,0,0,0,0,0,0,0,0,0,0,0,0,0,0,0,0,0,0,0,0,0,0,0,0,0,0,0,0,0,0,0,0,0,0,0,0,0,0,0,0,0,0,0,0,0,0,0,0],"id":2,"left_children":[1,3,5,7,9,11,13,15,17,19,21,23,25,27,29,31,33,35,37,39,41,43,45,-1,47,49,51,53,55,-1,57,59,61,63,65,67,69,71,73,75,77,79,81,83,85,87,89,91,93,95,97,99,-1,-1,101,103,105,-1,107,109,111,113,115,117,-1,119,121,123,125,127,129,131,133,135,137,139,141,143,145,147,149,151,153,155,157,159,161,163,165,167,169,171,173,175,-1,177,179,-1,181,-1,-1,183,-1,185,187,-1,-1,189,191,193,195,197,199,201,203,205,207,209,211,213,215,217,219,221,223,225,227,229,231,233,235,237,239,241,243,245,247,249,251,253,255,257,259,261,263,265,267,269,271,273,275,277,279,281,283,-1,285,287,289,-1,291,-1,293,295,297,299,301,303,305,-1,-1,-1,-1,-1,-1,-1,-1,-1,307,-1,309,-1,-1,-1,-1,311,-1,313,315,-1,-1,-1,317,-1,-1,-1,-1,-1,-1,-1,-1,-1,-1,-1,-1,-1,-1,-1,-1,-1,-1,-1,-1,-1,-1,-1,-1,-1,-1,-1,-1,-1,-1,-1,-1,-1,-1,-1,-1,-1,-1,-1,-1,-1,-1,-1,-1,-1,-1,-1,-1,-1,-1,-1,-1,-1,-1,-1,-1,-1,-1,-1,-1,-1,-1,-1,-1,-1,-1,-1,-1,-1,-1,-1,-1,-1,-1,-1,-1,-1,-1,-1,-1,-1,-1,-1,-1,-1,-1,-1,-1,-1,-1,-1,-1,-1,-1,-1,-1,-1,-1,-1,-1,-1,-1,-1,-1,-1,-1,-1,-1,-1,-1,-1,-1,-1,-1,-1,-1,-1,-1,-1,-1,-1,-1,-1,-1,-1,-1],"loss_changes":[2.0984385E4,2.229699E3,3.3617773E2,1.4614719E3,8.7632465E2,1.5678906E2,4.209548E1,1.3560901E3,7.429082E2,5.628827E2,9.341172E1,5.879306E0,3.760547E1,9.890783E0,2.231432E1,5.307175E2,1.1080968E2,5.2804297E2,1.9811249E2,5.1666466E1,1.7714575E2,1.5075058E1,6.3272984E1,0E0,4.122494E0,4.154297E0,7.8636003E0,4.5710926E0,6.8992763E0,0E0,1.21009445E1,4.7065308E1,1.2530371E2,4.0164536E1,1.4315704E1,2.8047498E2,2.2392896E2,1.9126329E2,5.3011078E1,2.4613153E1,4.172446E1,1.9283997E1,8.819678E1,1.4463409E1,3.3849258E0,3.4247578E1,4.3171494E1,3.884167E0,3.360361E0,3.8294296E0,7.792969E-1,2.0856395E0,0E0,0E0,3.4569778E0,3.5035105E0,5.7283096E0,0E0,6.9960866E0,5.2811905E1,6.994276E1,2.4312263E1,1.6628174E1,2.0499916E1,0E0,9.495411E0,3.09581E0,9.144507E1,1.3887433E2,1.4091284E2,8.85235E1,9.177668E1,1.26339264E2,4.9823097E1,3.0370344E1,2.634747E1,2.0976068E1,6.909052E0,3.367665E1,1.1155556E1,2.1562256E1,4.812854E1,1.0878424E2,9.01944E0,1.638198E1,2.4840548E0,5.37529E-1,1.1476334E1,3.068657E0,1.1511154E1,5.0683937E0,9.453201E-2,2.6766999E0,5.627308E-1,0E0,9.787445E-1,3.6186757E0,0E0,1.2956036E1,0E0,0E0,2.6369076E0,0E0,3.6233733E0,1.6425037E0,0E0,0E0,1.7415857E0,1.1857561E0,1.7545929E0,1.1580168E1,2.6291891E1,1.8145721E1,3.885161E1,1.5094442E1,4.5737732E1,1.4903076E1,1.660253E1,3.5274572E0,6.7023296E0,2.427927E0,4.3968506E0,5.9303894E0,9.48755E1,1.2031299E2,1.0222551E2,2.8392996E2,3.3616463E1,3.2288574E1,3.0220642E1,6.008804E1,4.571454E1,2.9955551E1,5.999083E1,6.8317535E1,1.7720161E1,1.3373779E1,6.5922985E0,2.4610668E1,5.179608E0,9.083218E0,8.3140335E0,2.947829E1,4.5162935E0,3.6853256E0,1.6533615E1,7.867695E0,7.120555E0,6.937874E0,2.6915634E0,8.313606E0,8.1501526E1,1.4862732E1,2.759375E1,1.3821934E1,0E0,7.984461E0,1.749553E1,1.0290298E0,0E0,1.3196015E-1,0E0,2.0406342E-1,1.297757E1,3.5051079E0,5.3406277E0,5.1154137E-1,1.1195063E1,6.1076736E-1,0E0,0E0,0E0,0E0,0E0,0E0,0E0,0E0,0E0,8.0065155E-1,0E0,4.7873735E0,0E0,0E0,0E0,0E0,4.365938E0,0E0,3.478079E0,9.140701E-1,0E0,0E0,0E0,1.1767365E0,0E0,0E0,0E0,0E0,0E0,0E0,0E0,0E0,0E0,0E0,0E0,0E0,0E0,0E0,0E0,0E0,0E0,0E0,0E0,0E0,0E0,0E0,0E0,0E0,0E0,0E0,0E0,0E0,0E0,0E0,0E0,0E0,0E0,0E0,0E0,0E0,0E0,0E0,0E0,0E0,0E0,0E0,0E0,0E0,0E0,0E0,0E0,0E0,0E0,0E0,0E0,0E0,0E0,0E0,0E0,0E0,0E0,0E0,0E0,0E0,0E0,0E0,0E0,0E0,0E0,0E0,0E0,0E0,0E0,0E0,0E0,0E0,0E0,0E0,0E0,0E0,0E0,0E0,0E0,0E0,0E0,0E0,0E0,0E0,0E0,0E0,0E0,0E0,0E0,0E0,0E0,0E0,0E0,0E0,0E0,0E0,0E0,0E0,0E0,0E0,0E0,0E0,0E0,0E0,0E0,0E0,0E0,0E0,0E0,0E0,0E0,0E0,0E0,0E0,0E0,0E0,0E0,0E0,0E0,0E0,0E0,0E0,0E0,0E0,0E0,0E0],"parents":[2147483647,0,0,1,1,2,2,3,3,4,4,5,5,6,6,7,7,8,8,9,9,10,10,11,11,12,12,13,13,14,14,15,15,16,16,17,17,18,18,19,19,20,20,21,21,22,22,24,24,25,25,26,26,27,27,28,28,30,30,31,31,32,32,33,33,34,34,35,35,36,36,37,37,38,38,39,39,40,40,41,41,42,42,43,43,44,44,45,45,46,46,47,47,48,48,49,49,50,50,51,51,54,54,55,55,56,56,58,58,59,59,60,60,61,61,62,62,63,63,65,65,66,66,67,67,68,68,69,69,70,70,71,71,72,72,73,73,74,74,75,75,76,76,77,77,78,78,79,79,80,80,81,81,82,82,83,83,84,84,85,85,86,86,87,87,88,88,89,89,90,90,91,91,92,92,93,93,95,95,96,96,98,98,101,101,103,103,104,104,107,107,108,108,109,109,110,110,111,111,112,112,113,113,114,114,115,115,116,116,117,117,118,118,119,119,120,120,121,121,122,122,123,123,124,124,125,125,126,126,127,127,128,128,129,129,130,130,131,131,132,132,133,133,134,134,135,135,136,136,137,137,138,138,139,139,140,140,141,141,142,142,143,143,144,144,145,145,146,146,147,147,148,148,149,149,150,150,151,151,152,152,153,153,154,154,156,156,157,157,158,158,160,160,162,162,163,163,164,164,165,165,166,166,167,167,168,168,178,178,180,180,185,185,187,187,188,188,192,192],"right_children":[2,4,6,8,10,12,14,16,18,20,22,24,26,28,30,32,34,36,38,40,42,44,46,-1,48,50,52,54,56,-1,58,60,62,64,66,68,70,72,74,76,78,80,82,84,86,88,90,92,94,96,98,100,-1,-1,102,104,106,-1,108,110,112,114,116,118,-1,120,122,124,126,128,130,132,134,136,138,140,142,144,146,148,150,152,154,156,158,160,162,164,166,168,170,172,174,176,-1,178,180,-1,182,-1,-1,184,-1,186,188,-1,-1,190,192,194,196,198,200,202,204,206,208,210,212,214,216,218,220,222,224,226,228,230,232,234,236,238,240,242,244,246,248,250,252,254,256,258,260,262,264,266,268,270,272,274,276,278,280,282,284,-1,286,288,290,-1,292,-1,294,296,298,300,302,304,306,-1,-1,-1,-1,-1,-1,-1,-1,-1,308,-1,310,-1,-1,-1,-1,312,-1,314,316,-1,-1,-1,318,-1,-1,-1,-1,-1,-1,-1,-1,-1,-1,-1,-1,-1,-1,-1,-1,-1,-1,-1,-1,-1,-1,-1,-1,-1,-1,-1,-1,-1,-1,-1,-1,-1,-1,-1,-1,-1,-1,-1,-1,-1,-1,-1,-1,-1,-1,-1,-1,-1,-1,-1,-1,-1,-1,-1,-1,-1,-1,-1,-1,-1,-1,-1,-1,-1,-1,-1,-1,-1,-1,-1,-1,-1,-1,-1,-1,-1,-1,-1,-1,-1,-1,-1,-1,-1,-1,-1,-1,-1,-1,-1,-1,-1,-1,-1,-1,-1,-1,-1,-1,-1,-1,-1,-1,-1,-1,-1,-1,-1,-1,-1,-1,-1,-1,-1,-1,-1,-1,-1,-1,-1,-1,-1,-1,-1,-1],"split_conditions":[1.7025585E0,7.7823215E0,1.2149048E-1,1.949996E0,1.0115458E-2,1.4259555E0,1.8324228E1,3.2430267E-1,6.177833E2,3.4087878E2,3.489996E2,1.8378171E0,5.093171E0,1.4163306E-1,4.4385357E0,9.04129E0,6.68869E-1,9.744816E-1,1.0629959E0,1.5360406E2,7.240429E-1,7.719415E2,2.622549E-2,1.294018E-1,4.256121E1,5.0496383E0,2.4839249E0,9.552791E-1,2.7761719E1,-9.064494E-2,4.0189453E1,7.739882E1,2.4506401E2,6.177833E2,8.263264E-1,3.194944E0,3.4794324E2,4.794693E-1,1.2674743E1,3.8690977E-3,2.9599002E2,1.1835797E1,4.238343E-3,4.3964958E-1,1.6361616E1,8.386316E2,7.403169E1,3.4838006E0,3.630818E2,-4.407692E-1,9.124756E-3,6.614273E2,1.5134938E-1,-6.253815E-2,2.0335943E1,2.9924965E-1,3.7040127E1,2.5535095E-1,5.1338196E-1,1.1834824E0,7.36817E0,1.1847847E2,1.173506E1,5.1338196E-1,2.682533E-1,5.842037E-1,9.744816E-1,1.9479752E-1,3.5423138E2,-1.6468048E-2,3.75307E0,3.269919E0,2.3309416E1,3.253174E-2,2.9024792E1,1.4003155E1,3.0792188E2,6.1141565E-3,1.0193007E0,3.792717E2,4.7579956E-1,6.916089E2,1.1770045E3,-1.6468048E-2,1.0253694E0,9.120394E-3,8.387375E-1,1.737384E1,1.1183334E-2,5.0046344E2,1.2228012E0,6.888303E-2,4.627897E0,-8.248537E-1,3.4009498E-2,1.9224309E0,3.1951338E1,2.7004498E-1,1.2726455E2,-9.5304616E-2,2.730157E-2,5.5758796E0,-1.8906597E-2,1.1153512E0,5.452651E0,-6.54562E-2,1.6188842E-1,3.85654E1,4.56471E1,1.0831229E2,1.6204834E-1,8.9157677E-1,1.871597E2,6.588445E-1,5.240886E-2,1.3743106E2,1.8986096E0,2.80866E2,3.6915984E-2,-2.8610264E-3,7.3223086E-3,1.0924835E0,1.686397E0,2.3833494E0,2.8784221E-2,2.897854E-1,4.945465E1,1.5064411E0,5.473586E4,1.801396E1,3.047662E-2,3.444041E0,1.756432E2,7.411235E2,1.868625E1,1.3828564E0,2.4656998E2,1.3856253E-1,2.35794E1,8.054736E1,3.519026E-3,3.8034145E1,9.877969E-1,3.132999E1,3.731016E1,4.8688698E-1,4.4137863E-3,1.6903186E-2,9.549108E1,1.5360406E2,1.3498522E3,4.6003116E2,1.5439069E3,6.6176206E-3,4.6003116E2,-7.921469E-2,3.2009943E2,3.2212735E2,2.2588179E1,8.535922E-2,8.472172E0,-1.7192094E-2,3.4593866E2,3.89014E-1,1.2860584E0,1.0827796E0,9.802116E-1,7.328894E-2,3.5317056E2,2.8218928E-1,2.4538167E-2,-1.3489598E-2,-6.918578E-2,1.6473244E-1,-1.5725002E-2,-1.623098E-2,-1.1083281E-1,7.377012E-2,2.480238E0,1.8624465E-1,1.2049333E2,2.3430073E-1,-2.9940993E-2,3.5935543E-2,2.2110248E-1,5.233252E1,1.18708074E-1,6.613611E1,1.7215635E1,1.9208682E-1,2.4472829E-2,-7.0843406E-2,6.203941E0,7.45266E-2,3.0938023E-1,1.071074E-1,-1.3225319E-2,1.8222693E-2,-8.025534E-2,2.6930947E-2,1.5001124E-1,2.8108642E-1,5.1082205E-2,9.065262E-2,-5.613124E-2,2.9062787E-1,1.22830726E-1,2.8524727E-1,-9.353479E-3,6.51929E-2,-4.609331E-2,-2.0800518E-2,-9.0707235E-2,4.0503792E-2,-3.7941452E-2,1.1947994E-2,-7.920747E-2,-8.223151E-2,-2.9426917E-2,-1.0608231E-1,-6.0886618E-2,9.8097526E-2,-2.5310202E-2,-4.2619262E-2,-6.816133E-2,6.325155E-3,-3.9978355E-2,7.850244E-2,-3.1619012E-2,-3.515142E-2,6.297421E-2,-8.784901E-2,-1.1986321E-1,-5.76152E-2,-1.0468292E-1,2.7624173E-2,-3.612279E-2,3.0136168E-1,-9.530897E-2,-2.5358928E-2,7.136612E-2,-3.2573637E-2,6.826704E-2,3.537746E-2,1.2700985E-1,-2.0818692E-2,2.0945719E-1,-8.387727E-2,-4.3534707E-2,-1.65962E-2,-6.066665E-2,-3.4632106E-4,7.1050994E-2,6.72789E-2,-8.13717E-3,1.2763159E-1,1.4250054E-2,6.6155912E-3,-5.8989655E-2,6.827955E-2,-2.8447885E-2,7.0457003E-4,1.1750553E-1,5.143316E-3,-1.0089288E-1,4.285519E-4,1.5337716E-1,6.3657366E-2,-6.0857207E-2,2.7229538E-2,-4.1294403E-2,4.0246802E-3,7.1553E-2,3.8755387E-2,-7.194902E-2,6.607171E-2,1.9433263E-1,1.9955073E-1,7.518292E-2,1.9892138E-1,2.7860478E-1,1.6421555E-1,1.164549E-1,-8.482724E-2,5.8545616E-2,2.0916787E-1,-3.5431277E-2,-5.7335984E-2,-2.8879826E-3,-9.479704E-2,-1.3330397E-2,-1.1079148E-2,-6.9227725E-2,-1.0871383E-1,-3.41312E-2,5.6785192E-2,1.975962E-2,1.630629E-1,-1.6598329E-2,-7.148424E-2,1.2381359E-1,-1.6654313E-2,-1.0607381E-1,-2.3016369E-2,-8.724993E-2,-1.5111948E-2,-1.0945927E-1,6.413658E-2,2.4791963E-1,-7.9624705E-2,1.03085734E-1,5.9150584E-2,-9.646276E-2,2.4305774E-2,-8.760682E-2,-1.022306E-1,-2.1349203E-2,-3.324459E-2,7.052383E-2],"split_indices":[10,0,9,12,13,3,13,9,2,2,2,12,12,13,3,7,10,10,10,12,10,6,13,0,6,3,10,3,7,0,3,6,2,2,10,0,2,9,7,13,2,0,13,9,12,6,3,7,2,9,9,2,0,0,3,9,12,0,9,13,7,6,7,9,0,9,10,9,2,9,0,12,12,9,12,0,2,13,5,2,9,2,6,9,5,4,10,3,13,6,9,4,7,0,0,3,6,0,3,0,0,0,0,5,7,0,0,6,13,2,9,10,2,13,4,6,5,6,4,0,4,5,0,12,4,9,7,10,7,7,13,3,7,2,7,10,6,13,7,7,13,7,5,0,7,9,13,4,7,12,6,2,6,13,2,0,2,2,0,0,12,0,2,3,9,5,5,13,2,0,0,0,0,0,0,0,0,0,7,0,2,0,0,0,0,6,0,6,12,0,0,0,7,0,0,0,0,0,0,0,0,0,0,0,0,0,0,0,0,0,0,0,0,0,0,0,0,0,0,0,0,0,0,0,0,0,0,0,0,0,0,0,0,0,0,0,0,0,0,0,0,0,0,0,0,0,0,0,0,0,0,0,0,0,0,0,0,0,0,0,0,0,0,0,0,0,0,0,0,0,0,0,0,0,0,0,0,0,0,0,0,0,0,0,0,0,0,0,0,0,0,0,0,0,0,0,0,0,0,0,0,0,0,0,0,0,0,0,0,0,0,0,0,0,0,0,0,0,0],"split_type":[0,0,0,0,0,0,0,0,0,0,0,0,0,0,0,0,0,0,0,0,0,0,0,0,0,0,0,0,0,0,0,0,0,0,0,0,0,0,0,0,0,0,0,0,0,0,0,0,0,0,0,0,0,0,0,0,0,0,0,0,0,0,0,0,0,0,0,0,0,0,0,0,0,0,0,0,0,0,0,0,0,0,0,0,0,0,0,0,0,0,0,0,0,0,0,0,0,0,0,0,0,0,0,0,0,0,0,0,0,0,0,0,0,0,0,0,0,0,0,0,0,0,0,0,0,0,0,0,0,0,0,0,0,0,0,0,0,0,0,0,0,0,0,0,0,0,0,0,0,0,0,0,0,0,0,0,0,0,0,0,0,0,0,0,0,0,0,0,0,0,0,0,0,0,0,0,0,0,0,0,0,0,0,0,0,0,0,0,0,0,0,0,0,0,0,0,0,0,0,0,0,0,0,0,0,0,0,0,0,0,0,0,0,0,0,0,0,0,0,0,0,0,0,0,0,0,0,0,0,0,0,0,0,0,0,0,0,0,0,0,0,0,0,0,0,0,0,0,0,0,0,0,0,0,0,0,0,0,0,0,0,0,0,0,0,0,0,0,0,0,0,0,0,0,0,0,0,0,0,0,0,0,0,0,0,0,0,0,0,0,0,0,0,0,0,0,0,0,0,0,0,0,0,0,0,0,0,0,0,0,0,0,0,0,0,0,0,0,0],"sum_hessian":[2.7679043E4,2.4931629E4,2.747413E3,2.2197664E4,2.7339663E3,2.685001E3,6.241218E1,1.1296777E3,2.1067986E4,1.6667479E3,1.0672184E3,1.6977905E1,2.6680232E3,4.1913857E1,2.0498327E1,6.241404E2,5.0553735E2,1.9214123E4,1.8538616E3,5.238952E2,1.1428528E3,3.8576892E2,6.8144946E2,1.0409456E0,1.5936959E1,2.6617285E3,6.2945313E0,5.7689443E0,3.614491E1,2.8322208E0,1.7666107E1,2.470087E2,3.7713168E2,1.1944973E2,3.8608762E2,1.2124159E4,7.0899644E3,1.1469686E3,7.068929E2,3.8882785E2,1.3506737E2,1.8111263E2,9.617401E2,3.254001E2,6.036885E1,4.3811703E2,2.4333243E2,4.5171256E0,1.1419833E1,1.9851412E1,2.6418772E3,4.385817E0,1.9087142E0,1.0385993E0,4.730345E0,3.3182842E1,2.9620693E0,9.962204E0,7.7039037E0,5.2183327E1,1.9482536E2,6.2409145E1,3.1472253E2,1.13608055E2,5.8416777E0,8.8356346E1,2.9773126E2,8.768262E3,3.355898E3,4.873767E3,2.2161973E3,4.6551196E2,6.814567E2,3.5147754E2,3.5541537E2,1.2031359E2,2.6851425E2,4.3597366E1,9.146999E1,1.4675526E2,3.4357357E1,4.1180945E2,5.4993066E2,7.0644484E0,3.1833563E2,3.3615196E0,5.7007328E1,4.147254E2,2.3391619E1,2.3849437E2,4.83805E0,2.2941341E0,2.2229915E0,9.772164E0,1.6476697E0,1.4071102E1,5.780309E0,2.6304294E3,1.1447765E1,2.759087E0,1.6267302E0,3.6148007E0,1.1155441E0,6.575582E0,2.660726E1,1.1052028E0,1.8568664E0,3.8333137E0,3.8705897E0,1.4105576E1,3.807775E1,1.3219048E2,6.263489E1,2.9686293E1,3.272285E1,7.0216705E1,2.4450584E2,8.372645E1,2.9881607E1,4.395975E1,4.439659E1,1.11265E2,1.8646628E2,5.7601996E2,8.192241E3,2.4112163E3,9.446816E2,3.46936E2,4.526831E3,1.3652389E3,8.5095844E2,1.5757983E1,4.4975397E2,2.3527896E2,4.4617776E2,1.3312572E1,3.3816495E2,1.3804349E2,2.1737189E2,8.161983E1,3.869376E1,1.3599446E2,1.3251979E2,2.9564205E1,1.4033161E1,7.2307304E1,1.916269E1,6.153898E1,8.5216286E1,7.4820642E0,2.6875292E1,2.8197714E2,1.2983229E2,5.177449E2,3.2185814E1,1.7402945E0,5.324154E0,2.512846E2,6.705103E1,1.0342815E0,2.327238E0,1.0934168E0,5.5913914E1,4.0572617E2,8.999239E0,4.286957E0,1.9104662E1,2.1531299E2,2.318139E1,3.6823945E0,1.1556555E0,1.0419742E0,1.2521598E0,1.1504427E0,1.0725487E0,1.0775608E0,8.694603E0,1.5459895E0,1.2525113E1,1.8551512E0,3.925158E0,9.446944E0,2.0008214E0,1.6614914E0,1.9533094E0,5.4710507E0,1.1045314E0,9.497476E0,1.7109783E1,2.6972914E0,1.1360224E0,1.3561174E0,2.5144725E0,1.0933424E0,1.3012233E1,2.7196945E1,1.0880807E1,9.546365E1,3.6726814E1,1.6767393E1,4.58675E1,1.5432823E1,1.4253469E1,2.3728151E1,8.9947E0,3.8435238E1,3.1781467E1,2.4283945E2,1.6663976E0,6.784229E1,1.5884156E1,1.7632694E1,1.2248913E1,1.6778166E1,2.7181585E1,2.8761787E0,4.1520412E1,9.039628E1,2.0868715E1,1.4383063E2,4.2635643E1,7.003348E1,5.059865E2,5.3773936E3,2.8148481E3,6.538401E2,1.7573762E3,4.236069E2,5.210747E2,3.085074E2,3.8428623E1,4.177772E3,3.490591E2,1.2102324E3,1.5500647E2,1.8955519E2,6.614032E2,1.2577005E1,3.1809785E0,4.160325E2,3.3721478E1,1.2614648E2,1.0913248E2,1.0835322E2,3.3782452E2,4.9302917E0,8.382279E0,1.5622694E2,1.81938E2,7.63584E1,6.168509E1,1.4632693E2,7.104495E1,9.400823E0,7.221901E1,2.910477E1,9.588991E0,2.303119E1,1.12963264E2,4.938563E1,8.313416E1,2.678489E1,2.7793155E0,4.6540413E0,9.37912E0,7.93065E0,6.4376656E1,7.483768E0,1.1678922E1,3.7534126E1,2.4004856E1,1.9905336E1,6.531095E1,2.7561426E0,4.725921E0,8.828655E0,1.8046637E1,2.094091E2,7.256804E1,5.9263397E1,7.056889E1,2.6909735E2,2.4864752E2,2.375993E1,8.425883E0,3.8373551E0,1.4867988E0,1.5685696E2,9.442764E1,6.509954E1,1.9514924E0,1.0089424E0,1.3182957E0,5.4402893E1,1.5110207E0,1.5162103E2,2.5410513E2,7.9619412E0,1.0372977E0,3.1785069E0,1.1084502E0,1.0873305E0,1.801733E1,1.8416704E2,3.1145948E1,1.0660837E0,2.2115307E1,1.0983053E0,1.1426807E1,1.5660675E0,2.3590906E0,2.2841065E0,3.186944E0,4.6048007E0,4.8926754E0,1.4907446E1,2.202337E0,1.3254523E0,1.1890202E0],"tree_param":{"num_deleted":"0","num_feature":"14","num_nodes":"319","size_leaf_vector":"1"}},{"base_weights":[-1.2711571E-2,-2.790023E-1,2.2194357E0,-3.7959963E-1,5.016447E-1,-2.502997E-1,2.2528787E0,6.183926E-1,-4.3602973E-1,8.7760156E-1,-1.4392465E-1,1.1992613E0,-6.34084E-1,2.2704146E0,1.1915503E-1,1.471111E0,-1.6026755E-1,-4.9268028E-1,1.2335664E-1,2.757383E-1,1.2525363E0,-5.125428E-1,1.16808884E-1,-2.2513914E-1,1.6926184E0,8.164455E-2,-7.108145E-1,-1.0757353E-1,2.2779536E0,-3.2283756E-1,1.2531687E0,8.3861035E-1,2.092249E0,-3.02837E-1,1.535137E0,-3.8430882E-1,-7.2989863E-1,3.632202E-1,-2.6479748E-1,5.196884E-3,6.641909E-1,9.33362E-1,1.5824803E0,-4.199619E-1,-9.1898763E-1,6.779186E-2,1.6393644E0,-6.369241E-2,3.0195251E-2,2.6135132E-2,1.9469588E-1,-7.837301E-2,1.134485E-1,-1.0387125E0,-4.734007E-1,-4.5654783E-1,8.837636E-2,1.480301E0,2.2826886E0,-9.133183E-1,9.5617145E-1,1.6346754E0,3.8522327E-1,1.6756707E-1,1.2087773E0,1.0220575E0,2.1722655E0,3.3837965E-1,-6.026952E-1,-6.1696363E-3,2.4201603E0,-4.811949E-1,-1.7473567E-1,-8.386159E-1,-4.7758424E-1,-1.3267665E-1,5.491233E-1,-3.4025732E-1,4.563004E-1,-2.2047263E-1,2.8716832E-1,-9.9125E-3,8.831302E-1,2.4168764E-1,1.0534964E0,1.8323035E0,1.2285746E0,4.009433E-1,-4.7873434E-1,3.0101348E-2,-9.403928E-1,2.8821713E-1,-3.377026E-1,1.8877201E0,-7.319013E-2,-2.8405583E-2,-1.11616984E-1,-6.2145627E-1,5.819692E-2,4.3698706E-2,-7.294935E-1,-5.460506E-1,2.0236077E0,9.2704576E-1,2.2840075E0,-1.0356814E0,-7.3447726E-3,-2.011572E-2,1.5136936E0,1.9720124E-1,4.3784514E-2,1.4548878E-1,-7.706768E-2,-3.912787E-2,7.0165056E-1,1.9125141E0,9.150634E-1,1.4423779E0,-8.1173813E-1,2.198685E0,7.7717766E-2,-4.1664153E-1,9.4205064E-1,-6.909564E-1,1.892808E-1,6.915461E-1,-7.108384E-1,-3.2374356E-2,2.5566176E-1,-4.0699074E-1,-5.9355646E-1,-3.0189064E-1,1.1838851E-1,-8.9127004E-1,-4.1300568E-1,-6.42751E-1,-2.4471752E-1,2.421796E0,-2.140242E-1,8.2818276E-1,1.1219811E-1,-3.891619E-1,7.206358E-1,-2.8725618E-1,1.1161538E0,-4.906998E-1,4.1672986E-2,7.4357224E-1,-5.802257E-2,5.8147854E-1,-3.003336E-1,1.1111214E0,2.9438776E-1,5.5328804E-1,-1.23399384E-1,6.9332975E-1,1.1998755E0,1.8515646E0,5.507918E-2,1.3110836E0,-3.9558426E-1,5.133691E-2,1.2808082E0,-2.2686881E-1,-6.5173393E-1,-9.6148884E-1,4.601471E-3,3.818281E-1,-3.2105666E-1,-2.530903E-1,-1.0234463E0,1.1531676E0,2.5202682E0,-8.7016934E-1,-4.627641E-2,-8.0978274E-1,-1.7255658E-2,-7.8570235E-1,1.1884658E-2,2.1654187E-1,9.6186596E-1,-2.9245306E-2,1.5251954E-1,1.7664058E0,2.288504E-1,-1.3537456E-2,-1.1138137E-1,2.0574275E-1,5.2914817E-2,-8.155563E-2,5.6847143E-3,2.254468E-1,2.4277873E-2,2.0470245E-1,-8.707488E-2,1.1951059E-1,-1.01081915E-2,1.8863533E-1,-3.463638E-2,-1.5102888E-2,-9.580829E-2,1.7261976E-1,2.3420727E-1,-7.333572E-2,6.0910787E-2,-4.7813684E-2,1.8842034E-1,2.4829982E-2,1.5040012E-1,-4.467081E-2,-8.800037E-2,-4.2748075E-2,1.9680856E-1,-8.80406E-2,1.3019615E-1,-1.0815461E-1,4.2846292E-2,5.510109E-3,-4.6985105E-2,7.419607E-2,-6.119811E-2,-1.869387E-2,-5.023713E-2,4.9772084E-2,-3.3947237E-2,-1.17333844E-1,-8.615973E-2,-5.8095437E-2,-7.3772105E-3,-7.5395755E-2,-5.0062567E-2,-2.6937312E-2,2.2669616E-1,7.082058E-2,2.5582096E-1,-4.0412374E-2,2.4402639E-2,2.8017938E-2,1.1138534E-1,1.2468115E-1,2.307893E-4,1.165112E-2,-4.783864E-2,2.3345874E-1,2.6041135E-2,1.0990389E-1,-4.368336E-2,-2.7276075E-2,1.418917E-1,3.8644265E-2,-6.088209E-2,5.9150603E-2,-2.2461444E-2,4.1127767E-2,1.2646988E-1,-1.2520111E-2,1.7909788E-1,1.4981711E-1,3.002919E-2,-4.723928E-2,6.4841025E-2,2.8274745E-2,1.2760521E-1,5.8835845E-2,-4.2866223E-2,3.409406E-2,1.4112212E-1,3.849412E-2,-4.0870804E-2,1.0396969E-1,9.308439E-3,1.3359196E-1,6.4070664E-2,2.9273957E-2,1.8725386E-1,-6.1640896E-2,9.241002E-2,1.4685276E-1,9.609622E-2,-1.0278984E-1,1.5504988E-2,-2.3331357E-2,6.812517E-2,1.816117E-1,-6.858941E-2,2.9131731E-2,-4.3326456E-2,-6.738473E-2,4.9583267E-2,-6.570877E-2,-1.0193639E-1,6.948771E-2,2.6980031E-2,-5.4508075E-4,-7.3396064E-2,-1.1083716E-2,-7.178304E-2,-1.1028464E-1,-8.508249E-3,-4.5597027E-3,1.554018E-1,2.813701E-1,2.7934909E-2,2.1674443E-2,-1.01704195E-1,-4.4570636E-2,5.3402394E-2,-9.408511E-2,-1.3086258E-2,-2.0755257E-2,-9.419348E-2,1.4318636E-1,-4.7841264E-4,1.4595042E-3,2.1956988E-1],"categories":[],"categories_nodes":[],"categories_segments":[],"categories_sizes":[],"default_left":[1,1,0,0,0,0,1,0,0,0,0,0,0,0,0,0,1,0,0,0,0,0,0,0,0,0,0,0,0,0,0,0,0,0,0,0,0,0,1,0,0,0,0,0,0,0,0,0,0,0,0,0,0,0,0,0,0,0,0,0,0,0,0,0,0,0,0,1,1,0,0,0,0,1,0,0,0,1,0,0,0,0,0,0,0,0,0,0,0,0,0,0,0,0,0,0,0,0,0,0,0,0,0,0,0,0,0,0,0,0,0,0,0,0,0,0,0,0,0,0,0,0,0,0,0,0,0,0,0,0,0,0,0,1,0,0,1,0,0,0,0,0,0,1,0,0,0,0,0,0,0,0,0,0,0,0,0,0,0,0,0,0,0,0,1,0,0,0,0,0,0,0,0,0,0,0,0,0,0,0,0,0,0,0,0,0,0,0,0,0,0,0,0,0,0,0,0,0,0,0,0,0,0,0,0,0,0,0,0,0,0,0,0,0,0,0,0,0,0,0,0,0,0,0,0,0,0,0,0,0,0,0,0,0,0,0,0,0,0,0,0,0,0,0,0,0,0,0,0,0,0,0,0,0,0,0,0,0,0,0,0,0,0,0,0,0,0,0,0,0,0,0,0,0,0,0,0,0,0,0,0,0,0,0,0,0,0,0,0,0,0,0,0,0,0,0,0,0,0,0,0,0,0,0,0,0,0,0,0,0,0,0,0,0,0],"id":3,"left_children":[1,3,5,7,9,11,13,15,17,19,21,23,25,27,29,31,33,35,37,39,41,43,45,47,49,51,53,55,57,59,61,63,65,67,69,71,73,75,77,79,81,83,85,87,89,91,93,-1,-1,-1,-1,-1,-1,95,97,99,-1,101,103,105,107,109,111,113,115,117,119,121,123,125,127,129,131,133,135,137,139,141,143,145,147,149,151,153,155,157,159,161,163,-1,165,167,169,171,-1,-1,-1,173,-1,-1,175,177,179,181,183,185,-1,-1,187,-1,-1,-1,-1,189,191,193,195,197,199,201,203,205,207,209,211,213,215,-1,-1,217,219,221,223,225,227,229,231,233,235,237,239,241,243,245,247,249,251,253,255,257,259,261,263,265,267,269,271,273,275,277,279,281,283,285,287,289,-1,291,293,295,297,299,301,303,305,307,-1,309,-1,-1,311,-1,-1,313,-1,-1,-1,-1,-1,-1,-1,-1,-1,-1,-1,-1,-1,-1,-1,-1,-1,-1,-1,-1,-1,-1,-1,-1,-1,-1,-1,-1,-1,-1,-1,-1,-1,-1,-1,-1,-1,-1,-1,-1,-1,-1,-1,-1,-1,-1,-1,-1,-1,-1,-1,-1,-1,-1,-1,-1,-1,-1,-1,-1,-1,-1,-1,-1,-1,-1,-1,-1,-1,-1,-1,-1,-1,-1,-1,-1,-1,-1,-1,-1,-1,-1,-1,-1,-1,-1,-1,-1,-1,-1,-1,-1,-1,-1,-1,-1,-1,-1,-1,-1,-1,-1,-1,-1,-1,-1,-1,-1,-1,-1,-1,-1,-1,-1,-1,-1,-1,-1,-1,-1,-1,-1,-1,-1,-1,-1,-1,-1,-1,-1,-1],"loss_changes":[1.6169331E4,1.9087588E3,2.4003711E2,1.2127498E3,6.735761E2,2.2810577E1,1.067666E2,7.655543E2,6.458303E2,3.9539087E2,9.829156E1,6.454871E0,1.8150187E0,5.111328E1,1.2621589E1,2.1442175E2,1.46309E2,4.754209E2,1.7464336E2,7.087294E1,1.1228577E2,1.5554298E1,4.4626377E1,8.664926E-1,1.8708019E0,4.5287066E0,1.7656994E0,3.8359418E0,7.303711E0,1.4719415E1,1.7016306E0,6.793298E1,2.1495972E1,1.0737932E2,6.408367E1,2.5786157E2,1.5874048E2,1.06932236E2,3.9149223E1,2.5424181E1,4.0870773E1,4.5574432E1,4.458496E1,1.692707E1,2.3134308E0,5.2098854E1,1.2367023E1,0E0,0E0,0E0,0E0,0E0,0E0,3.458624E-1,3.276915E0,2.2693486E0,0E0,2.2612564E1,2.9072266E0,1.265521E0,4.3560863E0,9.866972E-1,5.3969264E0,1.0920855E1,3.475702E1,1.7476797E1,1.4039307E1,8.163601E1,2.6704208E1,9.405063E0,1.2000046E1,7.218713E1,1.4978833E2,9.04646E1,6.7125275E1,6.63622E1,1.0272598E2,3.396798E1,3.3838116E1,1.5742694E1,2.8024857E1,1.2002484E1,2.7726624E1,9.5008745E0,2.3926819E1,1.0458252E1,3.0300415E1,7.2303095E0,1.397612E1,0E0,1.6392975E0,2.165024E1,1.1655674E1,5.0689964E0,0E0,0E0,0E0,2.3695478E0,0E0,0E0,1.5096807E-1,8.770287E-1,2.6867676E-1,3.666314E0,2.4892578E0,6.4536E-1,0E0,0E0,1.2427244E0,0E0,0E0,0E0,0E0,5.4185185E0,1.9109344E1,2.0909882E1,3.6126595E1,1.4607071E1,2.9859638E-1,1.3135376E1,2.2721217E0,1.2204677E1,3.8362244E1,1.54104E1,4.3522263E1,1.0373739E1,4.481151E0,0E0,0E0,1.5208759E2,8.5418335E1,6.449167E1,2.1141801E2,2.9171387E1,2.548693E1,1.5788483E1,4.566329E1,4.931717E-1,2.691789E1,8.0223785E1,4.112109E1,2.8089622E1,2.09052E1,7.305327E0,1.5693214E1,1.1566538E1,1.676225E1,1.2736919E1,1.29005575E1,5.4840956E0,7.953201E0,2.0173492E1,1.2942389E1,7.701852E0,5.81345E0,2.8610115E1,2.444104E1,9.428833E0,3.1011293E0,1.0260132E1,4.16769E0,3.3893166E0,8.30234E0,1.440666E1,5.196884E0,6.530838E-1,0E0,1.1302769E1,6.6175866E0,1.2092799E1,1.5621243E0,4.7729864E0,4.723728E0,2.0888424E0,1.661525E0,3.583877E-1,0E0,1.4289546E-1,0E0,0E0,1.6603098E0,0E0,0E0,2.1440643E1,0E0,0E0,0E0,0E0,0E0,0E0,0E0,0E0,0E0,0E0,0E0,0E0,0E0,0E0,0E0,0E0,0E0,0E0,0E0,0E0,0E0,0E0,0E0,0E0,0E0,0E0,0E0,0E0,0E0,0E0,0E0,0E0,0E0,0E0,0E0,0E0,0E0,0E0,0E0,0E0,0E0,0E0,0E0,0E0,0E0,0E0,0E0,0E0,0E0,0E0,0E0,0E0,0E0,0E0,0E0,0E0,0E0,0E0,0E0,0E0,0E0,0E0,0E0,0E0,0E0,0E0,0E0,0E0,0E0,0E0,0E0,0E0,0E0,0E0,0E0,0E0,0E0,0E0,0E0,0E0,0E0,0E0,0E0,0E0,0E0,0E0,0E0,0E0,0E0,0E0,0E0,0E0,0E0,0E0,0E0,0E0,0E0,0E0,0E0,0E0,0E0,0E0,0E0,0E0,0E0,0E0,0E0,0E0,0E0,0E0,0E0,0E0,0E0,0E0,0E0,0E0,0E0,0E0,0E0,0E0,0E0,0E0,0E0,0E0,0E0,0E0,0E0,0E0,0E0,0E0,0E0],"parents":[2147483647,0,0,1,1,2,2,3,3,4,4,5,5,6,6,7,7,8,8,9,9,10,10,11,11,12,12,13,13,14,14,15,15,16,16,17,17,18,18,19,19,20,20,21,21,22,22,23,23,24,24,25,25,26,26,27,27,28,28,29,29,30,30,31,31,32,32,33,33,34,34,35,35,36,36,37,37,38,38,39,39,40,40,41,41,42,42,43,43,44,44,45,45,46,46,53,53,54,54,55,55,57,57,58,58,59,59,60,60,61,61,62,62,63,63,64,64,65,65,66,66,67,67,68,68,69,69,70,70,71,71,72,72,73,73,74,74,75,75,76,76,77,77,78,78,79,79,80,80,81,81,82,82,83,83,84,84,85,85,86,86,87,87,88,88,90,90,91,91,92,92,93,93,97,97,100,100,101,101,102,102,103,103,104,104,105,105,108,108,113,113,114,114,115,115,116,116,117,117,118,118,119,119,120,120,121,121,122,122,123,123,124,124,125,125,126,126,129,129,130,130,131,131,132,132,133,133,134,134,135,135,136,136,137,137,138,138,139,139,140,140,141,141,142,142,143,143,144,144,145,145,146,146,147,147,148,148,149,149,150,150,151,151,152,152,153,153,154,154,155,155,156,156,157,157,158,158,159,159,160,160,161,161,162,162,163,163,164,164,165,165,167,167,168,168,169,169,170,170,171,171,172,172,173,173,174,174,175,175,177,177,180,180,183,183],"right_children":[2,4,6,8,10,12,14,16,18,20,22,24,26,28,30,32,34,36,38,40,42,44,46,48,50,52,54,56,58,60,62,64,66,68,70,72,74,76,78,80,82,84,86,88,90,92,94,-1,-1,-1,-1,-1,-1,96,98,100,-1,102,104,106,108,110,112,114,116,118,120,122,124,126,128,130,132,134,136,138,140,142,144,146,148,150,152,154,156,158,160,162,164,-1,166,168,170,172,-1,-1,-1,174,-1,-1,176,178,180,182,184,186,-1,-1,188,-1,-1,-1,-1,190,192,194,196,198,200,202,204,206,208,210,212,214,216,-1,-1,218,220,222,224,226,228,230,232,234,236,238,240,242,244,246,248,250,252,254,256,258,260,262,264,266,268,270,272,274,276,278,280,282,284,286,288,290,-1,292,294,296,298,300,302,304,306,308,-1,310,-1,-1,312,-1,-1,314,-1,-1,-1,-1,-1,-1,-1,-1,-1,-1,-1,-1,-1,-1,-1,-1,-1,-1,-1,-1,-1,-1,-1,-1,-1,-1,-1,-1,-1,-1,-1,-1,-1,-1,-1,-1,-1,-1,-1,-1,-1,-1,-1,-1,-1,-1,-1,-1,-1,-1,-1,-1,-1,-1,-1,-1,-1,-1,-1,-1,-1,-1,-1,-1,-1,-1,-1,-1,-1,-1,-1,-1,-1,-1,-1,-1,-1,-1,-1,-1,-1,-1,-1,-1,-1,-1,-1,-1,-1,-1,-1,-1,-1,-1,-1,-1,-1,-1,-1,-1,-1,-1,-1,-1,-1,-1,-1,-1,-1,-1,-1,-1,-1,-1,-1,-1,-1,-1,-1,-1,-1,-1,-1,-1,-1,-1,-1,-1,-1,-1,-1],"split_conditions":[1.7205435E0,7.7823215E0,8.482221E1,1.949996E0,1.0474383E-2,2.9892567E1,3.7253475E0,6.291275E-1,6.177833E2,3.5528717E2,3.5974115E2,3.1876768E1,3.7645485E1,1.3828564E0,5.9035114E2,2.9370514E2,7.3566335E-1,1.0204544E0,9.782818E-2,1.2156347E2,1.4003155E1,7.1474884E2,1.1788156E3,2.4057467E0,1.1419144E0,1.1798702E1,4.0861635E0,3.766212E1,2.1033375E0,1.8222132E0,1.7066398E0,1.2688935E-2,9.452105E0,8.005543E-1,6.8919764E0,2.8814728E0,3.5112256E2,5.913067E-1,1.5310808E2,3.2297635E2,2.9599002E2,6.566849E-1,4.6225926E-3,9.6352386E-1,6.370126E1,2.622549E-2,1.4522057E0,-6.369241E-2,3.0195251E-2,2.6135132E-2,1.9469588E-1,-7.837301E-2,1.134485E-1,3.4672305E-2,1.9041309E0,4.466326E-2,8.837636E-2,3.766212E1,2.5200188E0,1.8941841E1,1.5556121E1,1.1051816E3,7.2584543E0,2.5468013E2,3.090904E-1,1.663719E2,1.153957E0,9.229205E-2,5.1763046E-1,7.739882E1,1.0157536E0,1.9394886E1,3.5423138E2,7.3566335E-1,2.7226719E1,3.269919E0,9.596195E-1,1.1300973E0,5.0978477E3,-9.400259E-3,1.0000793E0,3.8690977E-3,1.0142841E0,1.2580094E2,7.3369514E1,1.2177868E0,1.153219E3,4.481154E-2,1.8849304E-2,3.0101348E-2,4.800573E-2,2.7761719E1,4.884361E2,1.8570672E-1,-7.319013E-2,-2.8405583E-2,-1.11616984E-1,4.7557964E1,5.819692E-2,4.3698706E-2,8.488194E0,1.9041309E0,2.9892567E1,1.04739256E-1,1.2049333E2,1.1449833E0,-7.3447726E-3,-2.011572E-2,9.159184E0,1.9720124E-1,4.3784514E-2,1.4548878E-1,-7.706768E-2,-1.8068469E-1,1.2984761E2,1.12421915E-1,1.1847847E2,4.9692976E-1,-1.26026E-1,-9.400259E-3,3.740483E2,7.411235E2,7.784299E0,9.6717644E-1,9.620037E0,1.2460088E2,1.444778E1,-3.2374356E-2,2.5566176E-1,6.1415017E-2,2.813374E0,8.177948E-1,5.0533302E1,-1.5642813E-1,1.0115328E-1,2.481986E0,1.3257465E0,1.4475211E1,1.2291553E3,7.06967E2,9.780655E-3,9.6352386E-1,8.439279E2,1.4309119E0,1.2792522E1,4.0448772E1,3.8690977E-3,1.5563815E-2,2.9816529E-2,1.6959174E2,1.2688935E-2,7.11298E-1,6.1141565E-3,1.0629779E1,-9.856143E-3,1.6959174E2,1.0272274E0,-2.7832981E-2,6.916089E2,7.632192E-3,-3.896528E-3,9.4114304E-1,3.945496E-2,1.7787737E1,3.4361422E-1,2.6097137E1,4.601471E-3,1.3121021E-2,1.35260485E-2,5.74845E-2,7.7968933E2,9.1101265E0,6.345063E2,4.5917044E0,1.2900372E0,5.7086797E0,-1.7255658E-2,7.592588E-2,1.1884658E-2,2.1654187E-1,4.2231913E0,-2.9245306E-2,1.5251954E-1,2.7269005E1,2.288504E-1,-1.3537456E-2,-1.1138137E-1,2.0574275E-1,5.2914817E-2,-8.155563E-2,5.6847143E-3,2.254468E-1,2.4277873E-2,2.0470245E-1,-8.707488E-2,1.1951059E-1,-1.01081915E-2,1.8863533E-1,-3.463638E-2,-1.5102888E-2,-9.580829E-2,1.7261976E-1,2.3420727E-1,-7.333572E-2,6.0910787E-2,-4.7813684E-2,1.8842034E-1,2.4829982E-2,1.5040012E-1,-4.467081E-2,-8.800037E-2,-4.2748075E-2,1.9680856E-1,-8.80406E-2,1.3019615E-1,-1.0815461E-1,4.2846292E-2,5.510109E-3,-4.6985105E-2,7.419607E-2,-6.119811E-2,-1.869387E-2,-5.023713E-2,4.9772084E-2,-3.3947237E-2,-1.17333844E-1,-8.615973E-2,-5.8095437E-2,-7.3772105E-3,-7.5395755E-2,-5.0062567E-2,-2.6937312E-2,2.2669616E-1,7.082058E-2,2.5582096E-1,-4.0412374E-2,2.4402639E-2,2.8017938E-2,1.1138534E-1,1.2468115E-1,2.307893E-4,1.165112E-2,-4.783864E-2,2.3345874E-1,2.6041135E-2,1.0990389E-1,-4.368336E-2,-2.7276075E-2,1.418917E-1,3.8644265E-2,-6.088209E-2,5.9150603E-2,-2.2461444E-2,4.1127767E-2,1.2646988E-1,-1.2520111E-2,1.7909788E-1,1.4981711E-1,3.002919E-2,-4.723928E-2,6.4841025E-2,2.8274745E-2,1.2760521E-1,5.8835845E-2,-4.2866223E-2,3.409406E-2,1.4112212E-1,3.849412E-2,-4.0870804E-2,1.0396969E-1,9.308439E-3,1.3359196E-1,6.4070664E-2,2.9273957E-2,1.8725386E-1,-6.1640896E-2,9.241002E-2,1.4685276E-1,9.609622E-2,-1.0278984E-1,1.5504988E-2,-2.3331357E-2,6.812517E-2,1.816117E-1,-6.858941E-2,2.9131731E-2,-4.3326456E-2,-6.738473E-2,4.9583267E-2,-6.570877E-2,-1.0193639E-1,6.948771E-2,2.6980031E-2,-5.4508075E-4,-7.3396064E-2,-1.1083716E-2,-7.178304E-2,-1.1028464E-1,-8.508249E-3,-4.5597027E-3,1.554018E-1,2.813701E-1,2.7934909E-2,2.1674443E-2,-1.01704195E-1,-4.4570636E-2,5.3402394E-2,-9.408511E-2,-1.3086258E-2,-2.0755257E-2,-9.419348E-2,1.4318636E-1,-4.7841264E-4,1.4595042E-3,2.1956988E-1],"split_indices":[11,0,2,12,13,6,12,10,2,2,2,13,2,10,2,2,11,10,11,12,0,6,2,11,10,13,8,13,7,0,5,11,7,10,7,0,2,10,8,2,2,10,13,10,8,13,10,0,0,0,0,0,0,4,10,4,0,13,8,7,12,2,12,2,13,6,5,11,11,6,5,7,2,11,12,12,10,11,2,11,5,13,5,12,12,10,6,13,13,0,13,7,6,11,0,0,0,6,0,0,8,10,6,4,2,10,0,0,8,0,0,0,0,11,6,4,6,13,11,11,2,2,7,10,7,2,8,0,0,13,12,10,7,11,4,0,11,7,6,2,13,10,2,5,12,7,13,4,11,8,11,10,13,0,11,8,10,11,2,13,11,10,4,7,11,7,0,13,13,13,2,0,6,8,10,11,0,4,0,0,11,0,0,13,0,0,0,0,0,0,0,0,0,0,0,0,0,0,0,0,0,0,0,0,0,0,0,0,0,0,0,0,0,0,0,0,0,0,0,0,0,0,0,0,0,0,0,0,0,0,0,0,0,0,0,0,0,0,0,0,0,0,0,0,0,0,0,0,0,0,0,0,0,0,0,0,0,0,0,0,0,0,0,0,0,0,0,0,0,0,0,0,0,0,0,0,0,0,0,0,0,0,0,0,0,0,0,0,0,0,0,0,0,0,0,0,0,0,0,0,0,0,0,0,0,0,0,0,0,0,0,0,0,0,0],"split_type":[0,0,0,0,0,0,0,0,0,0,0,0,0,0,0,0,0,0,0,0,0,0,0,0,0,0,0,0,0,0,0,0,0,0,0,0,0,0,0,0,0,0,0,0,0,0,0,0,0,0,0,0,0,0,0,0,0,0,0,0,0,0,0,0,0,0,0,0,0,0,0,0,0,0,0,0,0,0,0,0,0,0,0,0,0,0,0,0,0,0,0,0,0,0,0,0,0,0,0,0,0,0,0,0,0,0,0,0,0,0,0,0,0,0,0,0,0,0,0,0,0,0,0,0,0,0,0,0,0,0,0,0,0,0,0,0,0,0,0,0,0,0,0,0,0,0,0,0,0,0,0,0,0,0,0,0,0,0,0,0,0,0,0,0,0,0,0,0,0,0,0,0,0,0,0,0,0,0,0,0,0,0,0,0,0,0,0,0,0,0,0,0,0,0,0,0,0,0,0,0,0,0,0,0,0,0,0,0,0,0,0,0,0,0,0,0,0,0,0,0,0,0,0,0,0,0,0,0,0,0,0,0,0,0,0,0,0,0,0,0,0,0,0,0,0,0,0,0,0,0,0,0,0,0,0,0,0,0,0,0,0,0,0,0,0,0,0,0,0,0,0,0,0,0,0,0,0,0,0,0,0,0,0,0,0,0,0,0,0,0,0,0,0,0,0,0,0,0,0,0,0,0,0,0,0,0,0,0,0,0,0,0,0,0,0],"sum_hessian":[2.7200729E4,2.4302379E4,2.8983503E3,2.1528627E4,2.7737522E3,3.8635815E1,2.8597146E3,1.1516266E3,2.0377E4,1.7526885E3,1.0210637E3,7.6430454E0,3.0992767E1,2.8363403E3,2.337429E1,5.4924915E2,6.0237744E2,1.8503246E4,1.8737542E3,6.7341907E2,1.0792694E3,4.2261545E2,5.984483E2,2.1060894E0,5.5369563E0,2.9947E0,2.7998068E1,8.921809E0,2.8274185E3,1.733365E1,6.0406404E0,2.7329987E2,2.759493E2,5.564094E2,4.596804E1,1.2702721E4,5.800526E3,1.1581367E3,7.156175E2,3.9755298E2,2.7586606E2,5.505342E2,5.287352E2,3.458665E2,7.674897E1,5.8079474E2,1.7653538E1,1.0653898E0,1.0406995E0,1.1414069E0,4.3955493E0,1.7839772E0,1.2107229E0,1.0340893E1,1.7657175E1,6.9978585E0,1.9239504E0,1.8535814E1,2.8088826E3,1.2054404E1,5.2792454E0,3.5825434E0,2.4580972E0,9.767894E1,1.7562093E2,2.0155096E1,2.557942E2,1.7724988E2,3.7915955E2,1.7129425E1,2.8838614E1,8.68591E3,4.0168098E3,4.0521929E3,1.7483329E3,3.1586157E2,8.422751E2,6.483034E2,6.731405E1,2.2094374E2,1.7660925E2,6.786568E1,2.080004E2,8.1915726E1,4.6861847E2,3.0749567E2,2.2123952E2,2.2718828E1,3.2314764E2,1.0981196E0,7.565085E1,3.7644818E2,2.0434659E2,1.6164461E1,1.4890753E0,1.3970333E0,8.943859E0,1.5845407E1,1.8117691E0,1.496805E0,5.5010533E0,3.917987E0,1.4617827E1,3.4146929E0,2.805468E3,1.0318003E1,1.7364017E0,1.9241679E0,3.3550775E0,2.2895248E0,1.2930185E0,1.142329E0,1.3157681E0,7.109233E1,2.6586613E1,5.0091213E1,1.2552971E2,1.6570461E1,3.5846338E0,2.5255884E2,3.2353594E0,7.8890305E1,9.835958E1,3.4125607E2,3.7903477E1,8.616533E0,8.512892E0,1.3012098E0,2.7537405E1,5.233983E3,3.4519275E3,2.8015078E3,1.215302E3,3.6050962E3,4.4709674E2,1.0218204E3,7.2651245E2,8.860286E0,3.0700128E2,5.134467E2,3.2882843E2,6.203404E2,2.7963026E1,3.1915125E1,3.5398926E1,1.0836556E2,1.1257818E2,7.555628E1,1.0105296E2,2.2021206E1,4.584447E1,1.4929749E2,5.870291E1,4.3917126E1,3.7998596E1,1.370768E2,3.3154166E2,3.0415747E2,3.3382065E0,2.1072713E2,1.0512397E1,1.7016014E1,5.7028136E0,1.3252272E2,1.9062494E2,7.409153E1,1.5593185E0,3.2663596E2,4.98122E1,1.831208E2,2.122578E1,8.785393E0,7.379069E0,1.0704022E1,5.141383E0,4.41114E0,1.0899132E0,2.7464004E0,1.1715868E0,1.1978438E1,2.6393893E0,1.2918856E0,2.1228073E0,2.7552588E1,2.7779153E3,1.0421456E0,9.275857E0,1.4593827E0,1.895695E0,6.996197E0,6.409613E1,5.1718974E0,2.1414715E1,4.8034317E1,2.056896E0,9.827084E1,2.725887E1,1.32317095E1,3.3387518E0,1.0184772E0,2.5661566E0,6.18363E1,1.9072255E2,1.1302125E0,2.105147E0,7.760824E1,1.2820653E0,4.466306E1,5.3696518E1,1.503576E2,1.9089847E2,2.8708958E1,9.19452E0,2.2863586E0,6.330175E0,6.461222E0,2.0516691E0,6.267571E2,4.607226E3,4.6439922E1,3.4054875E3,1.7817928E3,1.01971497E3,6.6460095E2,5.507011E2,3.3947845E2,3.2656177E3,2.985682E2,1.4852853E2,5.708507E2,4.509697E2,7.203341E2,6.178323E0,1.1098793E0,7.7504063E0,2.1704239E2,8.995891E1,1.7661876E2,3.3682794E2,2.8122137E1,3.0070627E2,9.299457E1,5.273458E2,5.300854E0,2.266217E1,2.4899998E0,2.9425125E1,6.3531566E0,2.904577E1,1.2591578E1,9.577399E1,3.633402E1,7.6244156E1,4.722966E1,2.8326626E1,9.84098E1,2.6431708E0,4.1532435E0,1.7867962E1,3.92317E1,6.612769E0,2.5240402E1,1.24057076E2,4.186722E1,1.6835691E1,3.6323963E1,7.5931644E0,1.3534564E1,2.4464033E1,8.6455925E1,5.062087E1,2.6554602E2,6.599564E1,4.236669E0,2.999208E2,2.0471048E0,1.2911017E0,1.4315727E2,6.7569855E1,4.489816E0,6.0225806E0,1.2153578E1,4.8624363E0,4.5428743E0,1.1599392E0,3.7631638E1,9.4891075E1,1.8742609E2,3.1988475E0,1.3809936E1,6.0281597E1,8.471283E1,2.4192314E2,2.880676E1,2.1005438E1,1.4115341E2,4.19674E1,1.9408255E1,1.8175256E0,2.423633E0,6.361759E0,6.2986975E0,1.0803714E0,1.2175983E0,9.486424E0,3.182652E0,1.9587314E0,3.3739753E0,1.0371649E0,1.079631E0,1.6667694E0,1.4520974E0,1.1872919E0,5.626518E0,2.192607E1],"tree_param":{"num_deleted":"0","num_feature":"14","num_nodes":"315","size_leaf_vector":"1"}},{"base_weights":[-1.2869923E-2,-2.5738165E-1,1.9546635E0,-3.4993285E-1,4.3096936E-1,-1.155911E-1,2.0076356E0,6.031938E-1,-4.0227535E-1,7.615575E-1,-1.6154191E-1,1.87187E-1,-2.5000802E-1,2.0103288E0,-9.070094E-2,1.207349E0,-1.7836088E-1,-1.905078E-1,-5.231711E-1,5.0475085E-1,1.1002969E0,-8.920716E-2,-7.1071965E-1,-7.300855E-1,4.72749E-2,4.7067943E-1,2.012491E0,5.3552103E-1,1.57184E0,-3.4927675E-1,1.1716902E0,-3.5578647E-1,2.3556901E-2,-3.4466255E-1,-6.8825316E-1,2.2696348E-1,6.8108666E-1,1.3705862E0,6.067689E-1,1.7534764E-1,-2.9703403E-1,1.180566E-1,-8.611194E-1,-3.1877562E-1,-9.655169E-1,-2.7303052E-1,8.2617015E-1,-2.731656E-1,1.13890186E-1,1.7837119E0,2.0207171E0,2.247063E-1,1.0948365E0,9.1421103E-1,1.7258106E0,1.6430822E-1,-6.426403E-1,1.1578741E-2,1.9002126E0,1.4891994E0,-3.7230626E-1,-3.9775667E-1,2.265267E-1,-5.0194466E-1,-9.977808E-2,-7.040099E-1,4.1593927E-1,8.261659E-1,7.826951E-2,2.5688535E-1,8.609461E-1,1.678874E0,1.166862E0,7.790159E-1,-4.664517E-1,1.1477917E-1,8.854908E-1,-3.352185E-1,1.8121458E0,1.0722408E0,-3.8652694E-1,-4.506972E-1,-9.2990583E-1,5.9143275E-1,-6.304212E-1,-2.2408364E-2,-1.0063803E0,-5.950314E-1,9.573573E-1,2.3091319E-1,1.2563647E0,-6.808107E-2,2.8638998E-2,1.8608968E0,7.7178264E-1,3.977502E-2,2.0213573E0,5.899131E-1,-1.0757335E-1,1.3570756E0,1.67848E-1,1.5008273E0,2.733156E-1,1.9486492E0,1.414469E0,-3.160891E-1,9.7542536E-1,-7.4522066E-1,3.144127E-2,-8.240697E-1,6.66746E-1,7.779037E-1,2.0329013E0,2.0511403E0,-1.7860016E-1,-2.6880994E-1,-6.853683E-1,-8.8999406E-2,-6.633873E-1,2.956582E-1,-3.9851463E-1,-6.527489E-1,-4.3142053E-1,3.663891E-1,-1.2774745E-1,-4.7266203E-1,-7.540333E-1,-2.1601163E-1,1.2717242E0,7.2992086E-1,2.1388206E0,2.019113E-1,-4.9656773E-1,6.6813374E-1,9.889902E-2,1.2229122E0,7.0639074E-1,-6.895423E-2,1.7002221E0,1.2780305E0,-1.5078878E-1,-6.547109E-1,8.226666E-1,-6.919765E-1,6.9996303E-1,2.4924262E-1,-1.4523456E-1,1.5072913E0,3.68838E-1,1.1062915E0,-3.5700962E-1,2.2841763E-1,8.843987E-3,-2.069832E-2,1.3494917E0,-7.579617E-1,1.0315094E0,-7.407371E-1,7.5507504E-1,3.1736117E-2,-9.498831E-1,-2.5901703E-2,1.2457123E-1,-8.927298E-1,1.8454827E-1,-1.0598882E-1,-1.675324E-2,-6.939806E-1,3.5291162E-1,1.8608184E-3,1.399614E0,5.5054396E-1,-6.781356E-2,5.898541E-1,1.6209525E-1,7.7702326E-1,1.9021991E0,1.4382695E-1,7.737859E-2,6.033994E-2,2.0219253E-1,-7.9191536E-2,6.917924E-2,1.1059571E-2,-8.992901E-2,2.1426223E-1,1.0512798E-1,-7.093947E-2,8.697443E-2,1.667717E-1,-6.47173E-2,9.330006E-2,-6.1184913E-2,1.9810732E-1,-5.9327986E-2,1.7544137E-1,2.7770672E-2,-6.2492788E-2,-2.8005585E-3,1.3045095E-1,-3.04442E-2,-5.0740242E-2,-8.689073E-2,-5.245415E-2,1.5617172E-1,3.5755266E-2,-1.09650075E-1,2.0890951E-1,9.914423E-3,1.4070551E-1,-7.43269E-2,2.0904453E-1,2.3731334E-2,2.4799053E-1,5.6898434E-2,-7.2080724E-2,1.4714487E-1,-4.2147204E-2,-1.5232231E-2,-6.0648896E-2,-9.360269E-2,-4.46793E-2,5.306003E-3,-8.408376E-2,-3.986225E-2,4.0614203E-2,-2.5362665E-2,-8.005982E-2,-1.0766993E-2,-7.650453E-2,-4.3162394E-2,-3.4906883E-2,-6.20933E-2,8.971133E-3,1.6584252E-1,-8.964745E-3,-4.790828E-2,-3.8133416E-2,-9.083527E-2,-1.0842239E-1,-7.2055794E-2,9.533436E-2,-2.9618312E-2,1.4842398E-1,-9.69712E-2,8.531448E-2,-6.015125E-2,6.866334E-2,2.6275465E-1,5.5574067E-2,2.3700253E-4,-5.889381E-2,7.426079E-2,-4.535523E-5,9.96074E-2,2.4693916E-3,7.354348E-2,1.6215238E-1,9.302712E-2,8.597952E-2,-4.0188063E-2,6.294596E-2,-7.405501E-2,1.5083916E-1,1.9336618E-1,1.462882E-1,9.114392E-2,-3.8765814E-2,1.14483945E-1,3.210004E-2,-9.588065E-2,1.1017629E-1,6.0572412E-2,-9.352431E-2,-1.0528442E-2,-3.0533386E-2,1.249718E-1,1.156955E-1,1.9864878E-2,1.4752159E-2,-3.7350837E-2,1.6788815E-1,-2.0547012E-2,1.3712202E-1,1.5536207E-2,1.5465747E-1,-6.72351E-2,-2.3273872E-2,-5.601258E-2,6.929725E-2,2.15449E-1,5.495973E-3,-8.898725E-2,2.9249264E-2,1.2875013E-1,-9.197151E-2,1.5626607E-2,1.3412443E-1,-2.1446155E-2,-9.70187E-2,3.0260816E-2,-1.2185575E-2,-1.0046344E-1,-1.0924231E-2,3.856725E-2,-1.1153674E-2,-8.199804E-2,7.192435E-2,-1.903318E-2,-6.940528E-2,7.247201E-2,1.7766999E-1,1.6400646E-2,9.0782814E-2,-3.0971555E-2,1.1953447E-1,-3.9411932E-2,1.5134947E-1,-2.2711936E-2,8.748873E-2,1.9285652E-1,1.3421248E-1,-8.2740895E-2],"categories":[],"categories_nodes":[],"categories_segments":[],"categories_sizes":[],"default_left":[1,1,0,0,0,0,1,0,0,0,0,0,0,0,0,0,1,1,0,0,0,0,0,0,0,0,0,0,0,0,0,1,0,1,1,0,0,0,0,1,0,0,0,0,0,1,0,0,0,0,0,0,0,0,0,1,1,0,0,0,0,0,0,1,0,0,0,0,0,0,0,0,0,1,0,0,0,0,0,0,0,0,0,0,0,0,0,0,0,0,0,0,0,0,0,0,0,0,0,0,0,0,0,0,0,1,0,0,0,0,0,0,0,0,1,0,0,0,0,0,0,0,0,0,0,0,1,0,1,0,0,0,0,0,0,0,0,0,0,0,0,0,0,0,0,0,0,0,0,0,0,0,0,0,0,0,0,0,0,0,0,0,0,0,0,0,0,0,0,0,0,0,0,0,0,0,0,0,0,0,0,0,0,0,0,0,0,0,0,0,0,0,0,0,0,0,0,0,0,0,0,0,0,0,0,0,0,0,0,0,0,0,0,0,0,0,0,0,0,0,0,0,0,0,0,0,0,0,0,0,0,0,0,0,0,0,0,0,0,0,0,0,0,0,0,0,0,0,0,0,0,0,0,0,0,0,0,0,0,0,0,0,0,0,0,0,0,0,0,0,0,0,0,0,0,0,0,0,0,0,0,0,0,0,0,0,0,0,0,0,0,0,0,0,0,0,0,0,0,0,0,0,0,0,0,0,0,0,0,0,0,0,0,0,0,0,0,0,0,0,0,0,0],"id":4,"left_children":[1,3,5,7,9,11,13,15,17,19,21,-1,23,25,-1,27,29,31,33,35,37,39,41,43,45,47,49,51,53,55,57,59,61,63,65,67,69,71,73,75,77,79,81,83,85,87,89,91,-1,93,95,97,99,101,103,105,107,109,111,113,115,117,119,121,123,125,127,129,131,133,135,137,139,141,143,145,147,149,151,153,155,157,159,161,163,-1,165,167,169,171,173,-1,-1,175,177,-1,179,181,183,185,187,189,191,193,195,197,199,201,203,205,207,209,211,213,215,217,219,221,223,225,227,229,231,233,235,237,239,241,243,245,247,249,251,253,255,257,259,261,263,265,267,269,271,273,275,277,279,281,283,285,287,-1,-1,-1,289,291,293,295,297,-1,299,-1,-1,301,303,-1,-1,305,307,309,311,313,-1,315,-1,317,319,-1,321,-1,-1,-1,-1,-1,-1,-1,-1,-1,-1,-1,-1,-1,-1,-1,-1,-1,-1,-1,-1,-1,-1,-1,-1,-1,-1,-1,-1,-1,-1,-1,-1,-1,-1,-1,-1,-1,-1,-1,-1,-1,-1,-1,-1,-1,-1,-1,-1,-1,-1,-1,-1,-1,-1,-1,-1,-1,-1,-1,-1,-1,-1,-1,-1,-1,-1,-1,-1,-1,-1,-1,-1,-1,-1,-1,-1,-1,-1,-1,-1,-1,-1,-1,-1,-1,-1,-1,-1,-1,-1,-1,-1,-1,-1,-1,-1,-1,-1,-1,-1,-1,-1,-1,-1,-1,-1,-1,-1,-1,-1,-1,-1,-1,-1,-1,-1,-1,-1,-1,-1,-1,-1,-1,-1,-1,-1,-1,-1,-1,-1,-1,-1,-1,-1,-1,-1,-1,-1,-1,-1,-1,-1,-1,-1],"loss_changes":[1.2876084E4,1.5167865E3,3.2467383E2,1.0471765E3,5.528715E2,2.0438898E1,2.446875E1,5.162355E2,5.0920703E2,1.5702625E2,4.011538E1,0E0,1.01536255E1,8.6484375E0,0E0,1.50125E2,1.10553276E2,2.5585019E2,3.729292E2,5.040634E1,1.032547E2,4.9252934E1,1.4756748E1,2.3237877E0,1.1384174E1,2.9689212E0,1.8125E0,3.7713055E1,3.8838623E1,6.405934E1,4.5507072E1,1.2492737E2,2.6959088E2,2.3436517E2,1.14740234E2,3.577946E1,4.7914E1,2.9655762E1,5.1737762E1,1.6859291E1,4.0999874E1,9.53259E0,2.3937073E0,3.602521E0,2.83185E-1,1.3423906E1,3.1110106E0,9.5613223E-1,0E0,7.031952E0,2.0751953E0,1.7248413E1,1.86698E1,2.8858528E1,1.9604736E1,6.0748764E1,1.8718124E1,1.2477012E1,3.3453903E0,3.4493088E1,1.3088434E2,8.400726E1,9.2048744E1,3.9129944E1,3.1097448E1,7.470288E1,5.0665398E1,8.530506E0,2.3087097E1,1.2231403E1,2.389804E1,7.505432E0,4.506955E1,1.5549225E1,1.0759389E1,1.2779522E1,9.351675E0,1.5895542E1,7.181284E0,2.696609E0,7.6936364E0,6.239531E0,2.4042358E0,2.225637E0,2.0813687E0,0E0,5.2383804E-1,2.714796E0,3.0032268E0,2.3483012E0,8.626442E-1,0E0,0E0,2.999817E0,4.2355585E0,0E0,1.0087891E0,1.0067154E1,1.3053266E1,1.2269768E1,1.187466E1,1.5570435E1,2.3009394E1,1.6439636E1,5.2879425E1,8.716876E0,2.4800812E1,6.4625397E0,3.2016727E1,3.6180758E0,1.0097975E1,5.943759E0,2.496849E0,1.594854E1,1.0093932E1,5.402916E1,1.9291382E1,2.4176035E1,2.5544174E1,1.16393555E2,2.4741405E1,2.8942108E1,3.9234924E1,4.813076E1,3.0040741E1,4.5642242E1,5.814502E1,5.387171E0,2.0361313E1,1.2972343E1,1.7009068E0,1.884149E1,7.0235367E0,1.1480261E1,6.496228E0,1.3781418E1,5.3482574E1,2.0376234E0,5.8450317E0,1.7819397E1,8.033642E0,2.5756733E0,1.345285E1,4.6448565E0,4.1539555E0,1.0820308E1,8.400165E0,4.36306E0,3.674715E0,6.9855328E0,1.2158829E1,0E0,0E0,0E0,1.537713E0,1.2258172E0,2.1884537E-1,2.3267198E0,2.3589E0,0E0,2.412239E0,0E0,0E0,4.774518E-1,2.200914E-1,0E0,0E0,1.6830711E0,7.6410794E-1,2.1388876E0,1.9735737E0,1.9964648E0,0E0,2.9844675E0,0E0,4.3093038E0,9.0393066E-1,0E0,7.583553E0,0E0,0E0,0E0,0E0,0E0,0E0,0E0,0E0,0E0,0E0,0E0,0E0,0E0,0E0,0E0,0E0,0E0,0E0,0E0,0E0,0E0,0E0,0E0,0E0,0E0,0E0,0E0,0E0,0E0,0E0,0E0,0E0,0E0,0E0,0E0,0E0,0E0,0E0,0E0,0E0,0E0,0E0,0E0,0E0,0E0,0E0,0E0,0E0,0E0,0E0,0E0,0E0,0E0,0E0,0E0,0E0,0E0,0E0,0E0,0E0,0E0,0E0,0E0,0E0,0E0,0E0,0E0,0E0,0E0,0E0,0E0,0E0,0E0,0E0,0E0,0E0,0E0,0E0,0E0,0E0,0E0,0E0,0E0,0E0,0E0,0E0,0E0,0E0,0E0,0E0,0E0,0E0,0E0,0E0,0E0,0E0,0E0,0E0,0E0,0E0,0E0,0E0,0E0,0E0,0E0,0E0,0E0,0E0,0E0,0E0,0E0,0E0,0E0,0E0,0E0,0E0,0E0,0E0,0E0,0E0,0E0,0E0,0E0,0E0,0E0,0E0,0E0,0E0,0E0,0E0,0E0,0E0,0E0,0E0,0E0,0E0,0E0,0E0,0E0,0E0,0E0,0E0,0E0,0E0],"parents":[2147483647,0,0,1,1,2,2,3,3,4,4,5,5,6,6,7,7,8,8,9,9,10,10,12,12,13,13,15,15,16,16,17,17,18,18,19,19,20,20,21,21,22,22,23,23,24,24,25,25,26,26,27,27,28,28,29,29,30,30,31,31,32,32,33,33,34,34,35,35,36,36,37,37,38,38,39,39,40,40,41,41,42,42,43,43,44,44,45,45,46,46,47,47,49,49,50,50,51,51,52,52,53,53,54,54,55,55,56,56,57,57,58,58,59,59,60,60,61,61,62,62,63,63,64,64,65,65,66,66,67,67,68,68,69,69,70,70,71,71,72,72,73,73,74,74,75,75,76,76,77,77,78,78,79,79,80,80,81,81,82,82,83,83,84,84,86,86,87,87,88,88,89,89,90,90,93,93,94,94,96,96,97,97,98,98,99,99,100,100,101,101,102,102,103,103,104,104,105,105,106,106,107,107,108,108,109,109,110,110,111,111,112,112,113,113,114,114,115,115,116,116,117,117,118,118,119,119,120,120,121,121,122,122,123,123,124,124,125,125,126,126,127,127,128,128,129,129,130,130,131,131,132,132,133,133,134,134,135,135,136,136,137,137,138,138,139,139,140,140,141,141,142,142,143,143,144,144,145,145,146,146,147,147,148,148,149,149,150,150,154,154,155,155,156,156,157,157,158,158,160,160,163,163,164,164,167,167,168,168,169,169,170,170,171,171,173,173,175,175,176,176,178,178],"right_children":[2,4,6,8,10,12,14,16,18,20,22,-1,24,26,-1,28,30,32,34,36,38,40,42,44,46,48,50,52,54,56,58,60,62,64,66,68,70,72,74,76,78,80,82,84,86,88,90,92,-1,94,96,98,100,102,104,106,108,110,112,114,116,118,120,122,124,126,128,130,132,134,136,138,140,142,144,146,148,150,152,154,156,158,160,162,164,-1,166,168,170,172,174,-1,-1,176,178,-1,180,182,184,186,188,190,192,194,196,198,200,202,204,206,208,210,212,214,216,218,220,222,224,226,228,230,232,234,236,238,240,242,244,246,248,250,252,254,256,258,260,262,264,266,268,270,272,274,276,278,280,282,284,286,288,-1,-1,-1,290,292,294,296,298,-1,300,-1,-1,302,304,-1,-1,306,308,310,312,314,-1,316,-1,318,320,-1,322,-1,-1,-1,-1,-1,-1,-1,-1,-1,-1,-1,-1,-1,-1,-1,-1,-1,-1,-1,-1,-1,-1,-1,-1,-1,-1,-1,-1,-1,-1,-1,-1,-1,-1,-1,-1,-1,-1,-1,-1,-1,-1,-1,-1,-1,-1,-1,-1,-1,-1,-1,-1,-1,-1,-1,-1,-1,-1,-1,-1,-1,-1,-1,-1,-1,-1,-1,-1,-1,-1,-1,-1,-1,-1,-1,-1,-1,-1,-1,-1,-1,-1,-1,-1,-1,-1,-1,-1,-1,-1,-1,-1,-1,-1,-1,-1,-1,-1,-1,-1,-1,-1,-1,-1,-1,-1,-1,-1,-1,-1,-1,-1,-1,-1,-1,-1,-1,-1,-1,-1,-1,-1,-1,-1,-1,-1,-1,-1,-1,-1,-1,-1,-1,-1,-1,-1,-1,-1,-1,-1,-1,-1,-1,-1],"split_conditions":[1.7205435E0,7.7823215E0,3.7962976E0,1.8378171E0,1.0474383E-2,1.8378171E0,9.753061E0,6.9428825E-1,4.9107924E-2,1.4733845E1,7.253187E2,1.87187E-1,2.3070593E0,1.3828564E0,-9.070094E-2,9.533957E0,6.617669E-1,7.282734E-1,9.484043E-1,8.160341E1,5.439035E-3,1.9424602E-2,2.2335737E1,1.0448194E0,1.6330338E1,7.4062104E0,2.4057467E0,1.3009274E-1,-2.1438096E-2,8.6428833E-1,7.302047E0,2.7082143E0,2.4236635E1,5.2876983E-2,1.3257465E0,4.0448772E1,7.240429E-1,3.0180083E-3,9.873367E2,6.377007E-2,5.502894E1,1.1549604E-2,3.231376E1,7.9634476E-1,3.1951338E1,1.2448888E0,1.8507972E0,4.9338875E0,1.13890186E-1,4.5498734E1,1.5811863E0,4.6325684E-1,1.3226044E0,1.174648E0,1.2927733E-1,1.9472833E-1,4.8342335E-1,1.1542017E0,1.0150279E1,5.7990074E-1,2.733733E-2,5.9499058E1,8.670655E-2,-6.346738E-2,2.3833494E0,9.2784464E-2,4.9338875E0,1.9727746E0,6.6176206E-3,2.468685E-3,4.0419563E-3,6.6061974E-1,1.5439069E3,9.558277E-1,1.1607456E0,2.2651478E1,6.6664894E1,1.7766888E1,8.5156575E-2,7.3650385E2,1.8431032E0,1.440993E0,6.72441E1,6.450043E-1,7.282325E-1,-2.2408364E-2,2.1033375E0,3.023898E0,1.5556121E1,3.1806165E-1,1.9041309E0,-6.808107E-2,2.8638998E-2,2.3070593E0,1.8589546E2,3.977502E-2,2.5200188E0,-1.8068469E-1,1.4323439E2,8.691596E1,5.1564194E-2,1.12421915E-1,2.3605591E2,1.12421915E-1,1.7452298E2,3.6119584E-2,1.1834824E0,9.6717644E-1,9.885251E0,1.049797E0,1.1449833E0,1.0616565E1,2.2819086E1,4.6618555E2,1.6878013E-2,1.9387877E0,4.466326E-2,9.308708E0,3.6521075E0,1.1931397E2,2.5111377E0,1.5989274E0,1.6198883E1,1.2558522E1,1.6383768E1,3.713473E2,-1.9883914E-3,4.7616076E0,3.499471E0,1.1295261E0,7.253187E2,7.8352E1,3.842735E0,5.950947E-1,1.2697891E0,8.599533E1,1.153219E3,1.4295131E3,2.235417E2,6.382788E1,1.0792522E0,3.8804493E1,7.0975204E-3,6.804727E-3,4.2867488E-1,8.197964E0,1.231261E-2,1.3828564E0,4.3011954E2,3.945496E-2,3.705397E-2,2.2841763E-1,8.843987E-3,-2.069832E-2,1.8940704E1,1.1324368E0,1.2177868E0,3.1430792E-2,1.7268449E-2,3.1736117E-2,2.3972055E-1,-2.5901703E-2,1.2457123E-1,-5.519431E-1,8.809949E-1,-1.0598882E-1,-1.675324E-2,4.256121E1,7.1640716E0,1.4259555E0,3.4672305E-2,9.159184E0,-6.781356E-2,3.842735E0,1.6209525E-1,9.608723E0,4.200588E0,1.4382695E-1,1.0973797E1,6.033994E-2,2.0219253E-1,-7.9191536E-2,6.917924E-2,1.1059571E-2,-8.992901E-2,2.1426223E-1,1.0512798E-1,-7.093947E-2,8.697443E-2,1.667717E-1,-6.47173E-2,9.330006E-2,-6.1184913E-2,1.9810732E-1,-5.9327986E-2,1.7544137E-1,2.7770672E-2,-6.2492788E-2,-2.8005585E-3,1.3045095E-1,-3.04442E-2,-5.0740242E-2,-8.689073E-2,-5.245415E-2,1.5617172E-1,3.5755266E-2,-1.09650075E-1,2.0890951E-1,9.914423E-3,1.4070551E-1,-7.43269E-2,2.0904453E-1,2.3731334E-2,2.4799053E-1,5.6898434E-2,-7.2080724E-2,1.4714487E-1,-4.2147204E-2,-1.5232231E-2,-6.0648896E-2,-9.360269E-2,-4.46793E-2,5.306003E-3,-8.408376E-2,-3.986225E-2,4.0614203E-2,-2.5362665E-2,-8.005982E-2,-1.0766993E-2,-7.650453E-2,-4.3162394E-2,-3.4906883E-2,-6.20933E-2,8.971133E-3,1.6584252E-1,-8.964745E-3,-4.790828E-2,-3.8133416E-2,-9.083527E-2,-1.0842239E-1,-7.2055794E-2,9.533436E-2,-2.9618312E-2,1.4842398E-1,-9.69712E-2,8.531448E-2,-6.015125E-2,6.866334E-2,2.6275465E-1,5.5574067E-2,2.3700253E-4,-5.889381E-2,7.426079E-2,-4.535523E-5,9.96074E-2,2.4693916E-3,7.354348E-2,1.6215238E-1,9.302712E-2,8.597952E-2,-4.0188063E-2,6.294596E-2,-7.405501E-2,1.5083916E-1,1.9336618E-1,1.462882E-1,9.114392E-2,-3.8765814E-2,1.14483945E-1,3.210004E-2,-9.588065E-2,1.1017629E-1,6.0572412E-2,-9.352431E-2,-1.0528442E-2,-3.0533386E-2,1.249718E-1,1.156955E-1,1.9864878E-2,1.4752159E-2,-3.7350837E-2,1.6788815E-1,-2.0547012E-2,1.3712202E-1,1.5536207E-2,1.5465747E-1,-6.72351E-2,-2.3273872E-2,-5.601258E-2,6.929725E-2,2.15449E-1,5.495973E-3,-8.898725E-2,2.9249264E-2,1.2875013E-1,-9.197151E-2,1.5626607E-2,1.3412443E-1,-2.1446155E-2,-9.70187E-2,3.0260816E-2,-1.2185575E-2,-1.0046344E-1,-1.0924231E-2,3.856725E-2,-1.1153674E-2,-8.199804E-2,7.192435E-2,-1.903318E-2,-6.940528E-2,7.247201E-2,1.7766999E-1,1.6400646E-2,9.0782814E-2,-3.0971555E-2,1.1953447E-1,-3.9411932E-2,1.5134947E-1,-2.2711936E-2,8.748873E-2,1.9285652E-1,1.3421248E-1,-8.2740895E-2],"split_indices":[11,0,1,12,13,12,12,10,13,0,6,0,7,10,0,7,11,10,10,12,13,13,7,1,13,3,11,11,11,10,7,12,12,11,11,7,10,13,6,11,3,13,12,10,6,0,3,1,0,1,10,10,13,12,13,11,11,1,8,10,4,8,11,11,12,13,1,3,13,13,13,10,6,10,10,7,12,8,13,6,1,3,8,10,1,0,7,1,12,4,10,0,0,7,3,0,8,11,6,6,4,4,6,4,6,11,13,10,7,10,10,7,1,6,11,0,4,12,0,8,0,0,7,7,7,6,11,12,12,10,6,7,3,10,3,7,6,6,12,7,10,7,13,11,1,0,13,10,6,4,13,0,0,0,0,10,10,11,13,0,11,0,0,1,1,0,0,6,7,3,4,8,0,3,0,1,3,0,8,0,0,0,0,0,0,0,0,0,0,0,0,0,0,0,0,0,0,0,0,0,0,0,0,0,0,0,0,0,0,0,0,0,0,0,0,0,0,0,0,0,0,0,0,0,0,0,0,0,0,0,0,0,0,0,0,0,0,0,0,0,0,0,0,0,0,0,0,0,0,0,0,0,0,0,0,0,0,0,0,0,0,0,0,0,0,0,0,0,0,0,0,0,0,0,0,0,0,0,0,0,0,0,0,0,0,0,0,0,0,0,0,0,0,0,0,0,0,0,0,0,0,0,0,0,0,0,0,0,0,0,0,0,0,0,0,0,0,0,0,0,0,0,0],"split_type":[0,0,0,0,0,0,0,0,0,0,0,0,0,0,0,0,0,0,0,0,0,0,0,0,0,0,0,0,0,0,0,0,0,0,0,0,0,0,0,0,0,0,0,0,0,0,0,0,0,0,0,0,0,0,0,0,0,0,0,0,0,0,0,0,0,0,0,0,0,0,0,0,0,0,0,0,0,0,0,0,0,0,0,0,0,0,0,0,0,0,0,0,0,0,0,0,0,0,0,0,0,0,0,0,0,0,0,0,0,0,0,0,0,0,0,0,0,0,0,0,0,0,0,0,0,0,0,0,0,0,0,0,0,0,0,0,0,0,0,0,0,0,0,0,0,0,0,0,0,0,0,0,0,0,0,0,0,0,0,0,0,0,0,0,0,0,0,0,0,0,0,0,0,0,0,0,0,0,0,0,0,0,0,0,0,0,0,0,0,0,0,0,0,0,0,0,0,0,0,0,0,0,0,0,0,0,0,0,0,0,0,0,0,0,0,0,0,0,0,0,0,0,0,0,0,0,0,0,0,0,0,0,0,0,0,0,0,0,0,0,0,0,0,0,0,0,0,0,0,0,0,0,0,0,0,0,0,0,0,0,0,0,0,0,0,0,0,0,0,0,0,0,0,0,0,0,0,0,0,0,0,0,0,0,0,0,0,0,0,0,0,0,0,0,0,0,0,0,0,0,0,0,0,0,0,0,0,0,0,0,0,0,0,0,0,0,0,0,0,0,0,0,0],"sum_hessian":[2.6762629E4,2.3805154E4,2.957474E3,2.0984242E4,2.8209133E3,7.375589E1,2.8837183E3,1.0918453E3,1.9892396E4,1.8104808E3,1.0104324E3,3.8534667E0,6.990242E1,2.881366E3,2.352363E0,6.155048E2,4.763405E2,7.2301865E3,1.266221E4,1.0311958E3,7.7928503E2,8.938603E2,1.1657206E2,2.617575E1,4.372667E1,4.3471313E0,2.8770188E3,2.1735204E2,3.981528E2,4.234706E2,5.2869904E1,4.079644E3,3.1505425E3,6.0851875E3,6.5770225E3,4.0130093E2,6.298949E2,5.023739E2,2.7691116E2,3.9332745E2,5.0053287E2,1.79383E1,9.863376E1,1.0385607E1,1.5790145E1,3.1444996E1,1.2281674E1,2.3369331E0,2.0101984E0,1.0741964E2,2.769599E3,1.4061388E2,7.673816E1,7.685069E1,3.2130212E2,1.5411131E2,2.693593E2,2.0785927E1,3.2083977E1,3.5413338E1,4.0442307E3,1.0240065E3,2.126536E3,3.704711E3,2.3804766E3,6.4848467E3,9.2175644E1,7.887931E1,3.224216E2,1.8827463E2,4.4162027E2,1.9700816E2,3.0536572E2,2.3885083E2,3.806033E1,3.6348706E2,2.984037E1,4.924585E2,8.074374E0,5.815671E0,1.2122627E1,1.5242098E1,8.339166E1,2.4199631E0,7.965644E0,1.1634804E0,1.4626664E1,2.5331863E1,6.1131334E0,5.7970734E0,6.484601E0,1.2266212E0,1.110312E0,9.902737E1,8.392277E0,1.3373597E0,2.7682617E3,6.66185E1,7.399538E1,5.9454807E1,1.7283352E1,3.942392E1,3.7426773E1,1.8420267E2,1.3709944E2,9.717069E1,5.694062E1,2.3369113E2,3.5668175E1,9.021476E0,1.1764452E1,4.117758E0,2.7966219E1,2.6316519E1,9.096817E0,3.0408152E3,1.0034154E3,4.7417804E2,5.498284E2,1.9152323E3,2.1130367E2,1.1778395E3,2.5268713E3,1.3405609E2,2.2464207E3,1.154763E3,5.330084E3,5.3451893E1,3.872375E1,7.494066E1,3.9386537E0,2.6588184E2,5.653979E1,5.1357853E1,1.3691678E2,1.3007483E2,3.115454E2,2.3503275E0,1.9465784E2,2.8163464E2,2.373108E1,6.6434903E0,2.3220734E2,3.2234566E1,5.8257627E0,2.3961436E2,1.2387271E2,1.2671992E1,1.7168379E1,6.592443E0,4.8586606E2,6.0833235E0,1.9910501E0,1.0810759E0,4.734595E0,9.975239E0,2.1473887E0,1.25975275E1,2.6445706E0,1.0799444E0,8.231172E1,1.3149176E0,1.1050457E0,5.9538913E0,2.0117526E0,1.3501908E1,1.124756E0,2.3180155E1,2.1517076E0,2.2519655E0,3.861168E0,4.5807934E0,1.2162799E0,3.2185562E0,3.2660449E0,4.3623257E0,9.466504E1,3.7356157E0,4.6566606E0,1.533841E0,2.766728E3,4.109307E0,6.2509193E1,5.8684357E1,1.531102E1,1.4976239E1,4.447857E1,7.677362E0,9.605989E0,3.6789165E1,2.6347513E0,2.141375E1,1.6013023E1,1.821005E2,2.1021748E0,1.0512026E2,3.197918E1,4.633171E1,5.083898E1,4.5279053E1,1.1661569E1,8.170167E1,1.5198946E2,2.664477E1,9.023405E0,1.6317205E0,7.389755E0,2.5910344E0,9.173418E0,2.9660358E0,1.1517217E0,2.6938692E1,1.0275272E0,1.988959E1,6.42693E0,7.270791E0,1.8260266E0,1.3149276E3,1.7258876E3,7.6583545E2,2.3757996E2,1.341529E2,3.4002515E2,3.2789285E2,2.2193556E2,1.5947275E3,3.2050476E2,8.795543E1,1.23348236E2,7.795115E2,3.9832806E2,1.7634254E3,7.634459E2,1.1129311E2,2.2762972E1,2.0277767E3,2.1864381E2,9.562025E2,1.985604E2,4.8774484E2,4.842339E3,2.73075E0,5.0721146E1,3.567878E1,3.0449688E0,6.8921234E1,6.019422E0,1.5973308E0,2.341323E0,9.5231285E1,1.7065054E2,5.310591E1,3.433877E0,1.7229626E1,3.4128227E1,1.23552284E2,1.3364497E1,5.3144604E1,7.693023E1,2.738622E2,3.768321E1,1.182916E0,1.1674114E0,1.1094757E2,8.371027E1,1.8523865E2,9.639598E1,2.065558E1,3.0754995E0,1.5653542E0,5.078136E0,9.977208E1,1.3243526E2,2.2366432E1,9.8681345E0,2.2167513E0,3.6090114E0,1.1495963E1,2.281184E2,5.442614E1,6.944657E1,1.1536054E1,1.1359383E0,2.0621583E0,1.510622E1,5.388944E0,1.2034985E0,3.0277032E2,1.8309572E2,3.6327386E0,1.1018562E0,1.4741172E0,8.5011215E0,1.1037076E0,1.0436813E0,1.0480955E1,2.1165721E0,1.4092E0,1.2353706E0,8.122047E1,1.0912519E0,1.0195396E0,4.934352E0,1.0031909E0,1.0085617E0,4.457988E0,1.8722168E1,1.0916095E0,1.060098E0,1.1676716E0,1.0842938E0,2.6228147E0,1.2383533E0,3.1975052E0,1.3832881E0,1.8594965E0,1.3590597E0,2.2239537E0,2.138372E0,3.2241325E0,9.14409E1,1.7404437E0,2.916217E0],"tree_param":{"num_deleted":"0","num_feature":"14","num_nodes":"323","size_leaf_vector":"1"}},{"base_weights":[-1.1467051E-2,-2.3675409E-1,1.7726555E0,-3.3173886E-1,3.7589234E-1,-6.8003476E-2,1.8176833E0,4.9957502E-1,-3.831208E-1,-1.756565E-1,5.872706E-1,-7.277544E-1,2.977041E-1,1.8201371E0,-8.864597E-2,1.1359917E0,-4.5138547E-1,-4.3728673E-1,1.3046381E-1,-3.2314938E-1,1.746854E-1,7.535768E-2,8.015697E-1,-3.5276765E-1,-9.8108226E-1,-1.550088E-1,9.0646666E-1,1.187224E0,1.8235254E0,3.8375694E-1,1.5501249E0,-4.3546706E-2,-7.1190727E-1,-5.461804E-1,-3.0487788E-1,-3.1278667E-1,3.0918372E-1,-1.1164309E-1,-5.14865E-1,-3.6590263E-1,3.680598E-1,3.2149488E-1,-1.139271E-1,5.8158356E-1,1.1019274E0,-7.474815E-1,7.3119867E-1,-1.0355274E-1,-1.736466E-2,-3.045421E-1,1.3644902E-1,1.0761629E0,-4.875359E-2,3.1755632E-1,1.5892957E0,1.8241242E0,2.4075476E-2,-1.8243214E-1,5.694452E-1,7.636402E-1,1.6850519E0,2.806969E-1,-5.849049E-1,-3.7915275E-1,-7.968576E-1,-3.2597512E-1,-7.5671166E-1,-2.4327657E-1,-6.098561E-1,-6.87638E-2,-5.162603E-1,-3.6466185E-2,5.499222E-1,-2.6358458E-1,1.6201693E-1,-5.4597974E-1,5.3326863E-1,-1.1886194E-2,-5.9649545E-1,8.0525637E-1,-8.968066E-3,1.745719E-2,4.298364E-1,-6.52595E-1,5.8884874E-2,4.404193E-1,9.8633784E-1,1.2235091E0,6.9264805E-1,-9.208493E-1,1.7447134E-2,1.213414E-1,-1.8092794E-2,1.1973777E-1,-4.156275E-1,6.792925E-2,1.3786366E0,-3.233134E-1,8.746926E-1,1.8417563E0,2.7899126E-2,1.8265216E0,1.2903135E0,3.559469E-1,-5.0539917E-1,9.000022E-1,3.1479716E-1,-2.2293493E-2,1.0249032E0,1.319072E0,1.8137584E0,-1.0483598E-1,8.407033E-1,-2.278713E-1,-7.704238E-1,-4.28375E-1,1.143554E-1,-7.3991567E-1,-1.0768218E-1,-1.0021916E-1,-4.247134E-1,-8.311649E-1,-5.526036E-1,-1.6348091E-1,-4.8809516E-1,-8.004663E-1,-1.7200899E-1,-9.4823994E-2,2.369449E-1,6.737229E-1,-5.956206E-1,1.5405178E0,-9.5481694E-2,8.564176E-2,7.788183E-1,1.9625789E-2,-3.6784592E-1,1.0871989E0,1.4805965E-2,-7.357258E-1,-4.1179496E-1,1.17632E0,-1.7432103E-1,-5.460508E-1,3.4981725E-1,-2.4426717E-1,-8.920325E-1,6.2345386E-1,1.5622374E0,-1.1089381E-1,8.7753135E-1,1.4852804E0,-5.6518354E-2,7.91435E-1,2.9397106E-1,6.82039E-1,-7.007346E-1,-2.8899506E-2,9.216459E-1,6.59704E-1,7.512996E-2,4.451549E-1,1.3080114E0,9.890453E-1,1.4231323E0,1.0070236E0,4.4150376E-1,-2.5761312E-2,-1.0130197E-1,-1.5829597E-1,-9.3534315E-1,6.596883E-1,-7.8585505E-2,6.1869246E-1,1.8577956E0,-8.325847E-2,4.807991E-2,1.3937525E-1,5.1912297E-3,1.9493616E-1,6.0106676E-2,8.1357056E-1,1.8276012E-1,1.5694052E0,-7.2511695E-2,-9.815865E-2,5.9865404E-2,-8.875229E-2,-2.564202E-3,-5.7507628E-3,1.1272732E-1,6.6124074E-2,9.115227E-3,4.4845253E-2,-6.2654436E-2,1.2354561E-1,-1.0810404E-2,1.6085745E-1,8.512544E-2,1.8664889E-1,1.0675526E-1,-1.2416694E-3,-8.502778E-2,1.0662707E-1,-4.2647827E-2,2.4511386E-2,-1.05956666E-1,-8.229027E-2,5.7091814E-2,-4.893929E-2,8.895105E-2,-4.2828705E-2,-7.978279E-2,-3.1351928E-2,6.9490535E-4,-3.72623E-2,-7.4531876E-2,-7.196839E-2,-9.125789E-2,1.0947825E-3,-6.663023E-2,-3.6129452E-2,-4.550228E-3,2.9333565E-2,-5.29221E-2,-7.950544E-3,-8.7159984E-2,-4.9339443E-2,1.0538131E-2,-6.563304E-2,1.8453005E-3,-4.816716E-2,1.1126538E-1,2.4748167E-2,-6.349067E-2,1.9531317E-1,-1.6536186E-2,-5.3652115E-2,-4.9351173E-4,-5.0484437E-2,3.320236E-2,1.1358713E-1,2.2755053E-2,-2.8921342E-2,7.5927034E-2,-1.0296259E-1,-3.0249024E-2,5.6673657E-2,2.1679997E-1,3.2931373E-2,-3.49558E-2,-7.554881E-2,8.212116E-2,-2.0231292E-2,-7.1238846E-2,1.5104087E-1,1.22001385E-2,3.53979E-2,-8.174276E-2,-8.761737E-2,3.631803E-2,5.6351107E-2,-6.1755147E-2,-7.392E-2,1.3691708E-2,-1.019244E-1,-4.5740616E-2,9.775183E-3,9.9160776E-2,2.213025E-1,9.760501E-2,1.2671838E-2,